booster[0]:
0:[f37<39811] yes=1,no=2,missing=1
	1:[f52<199.5] yes=3,no=4,missing=4
		3:leaf=-0.021461
		4:[f2<0.00617284] yes=9,no=10,missing=10
			9:leaf=-0.0118755
			10:[f35<-83.548] yes=19,no=20,missing=20
				19:[f13<0.693844] yes=23,no=24,missing=23
					23:[f37<1831] yes=29,no=30,missing=30
						29:leaf=-0
						30:leaf=0.123949
					24:leaf=0.0108628
				20:[f35<-74.6198] yes=25,no=26,missing=26
					25:leaf=-0.0175897
					26:leaf=0.051898
	2:leaf=-0.0239901
booster[1]:
0:leaf=-0.0235304
booster[2]:
0:[f44<0.5] yes=1,no=2,missing=1
	1:[f34<27.6848] yes=3,no=4,missing=4
		3:leaf=0.0596975
		4:[f6<0.00599422] yes=7,no=8,missing=7
			7:[f34<42.2861] yes=11,no=12,missing=11
				11:[f34<35.9367] yes=15,no=16,missing=16
					15:leaf=-0.0162786
					16:[f34<38.5733] yes=23,no=24,missing=24
						23:leaf=0.0465591
						24:leaf=-0.00909493
				12:leaf=-0.0249486
			8:[f34<40.1727] yes=13,no=14,missing=14
				13:leaf=-0.00302198
				14:leaf=0.0444481
	2:[f12<1.41343] yes=5,no=6,missing=5
		5:leaf=0.127125
		6:leaf=-0.0032523
booster[3]:
0:[f37<59603] yes=1,no=2,missing=1
	1:[f30<1.06618] yes=3,no=4,missing=4
		3:leaf=0.0975806
		4:[f5<90.5746] yes=7,no=8,missing=7
			7:leaf=-0.019428
			8:[f9<9.33039] yes=15,no=16,missing=16
				15:leaf=-0.00887097
				16:leaf=0.0844488
	2:[f9<5.65664] yes=5,no=6,missing=6
		5:[f9<-0.109919] yes=9,no=10,missing=10
			9:leaf=-0.00489324
			10:[f5<8.14434] yes=17,no=18,missing=17
				17:leaf=0.10904
				18:leaf=-0
		6:[f37<347512] yes=11,no=12,missing=12
			11:[f48<0.5] yes=19,no=20,missing=19
				19:[f30<31.9881] yes=25,no=26,missing=26
					25:leaf=0.2254
					26:leaf=0.0431992
				20:leaf=0.0611746
			12:leaf=-0
booster[4]:
0:leaf=-0.0267484
booster[5]:
0:[f25<3.5] yes=1,no=2,missing=1
	1:leaf=-0.0244789
	2:[f10<409.223] yes=5,no=6,missing=6
		5:leaf=-0.0172705
		6:leaf=0.0895594
booster[6]:
0:[f37<7796] yes=1,no=2,missing=2
	1:[f8<1.89985] yes=3,no=4,missing=4
		3:leaf=-0.0185691
		4:[f18<0.12005] yes=9,no=10,missing=9
			9:leaf=-0.00364949
			10:[f0<152.856] yes=15,no=16,missing=16
				15:leaf=-0.00489324
				16:leaf=0.0812278
	2:leaf=-0.0258729
booster[7]:
0:[f49<0.5] yes=1,no=2,missing=1
	1:[f35<-80.5902] yes=3,no=4,missing=4
		3:[f33<439.5] yes=7,no=8,missing=7
			7:[f34<39.975] yes=15,no=16,missing=16
				15:[f34<31.9879] yes=27,no=28,missing=28
					27:leaf=-0.0124109
					28:[f34<32.8248] yes=39,no=40,missing=40
						39:leaf=0.13592
						40:leaf=0.0393522
				16:leaf=-0.0155256
			8:leaf=-0.0195426
		4:[f35<-71.4016] yes=9,no=10,missing=9
			9:[f34<40.1787] yes=19,no=20,missing=19
				19:[f35<-74.6222] yes=35,no=36,missing=36
					35:[f34<34.3327] yes=43,no=44,missing=44
						43:leaf=0.0200192
						44:leaf=0.163699
					36:leaf=0.0509259
				20:[f8<0.928272] yes=37,no=38,missing=38
					37:leaf=0.0431992
					38:leaf=-0.0218332
			10:leaf=0.180616
	2:[f34<34.2693] yes=5,no=6,missing=5
		5:[f34<32.959] yes=11,no=12,missing=11
			11:[f34<31.4032] yes=23,no=24,missing=24
				23:leaf=-0.00316092
				24:leaf=0.13009
			12:leaf=-0.00369482
		6:leaf=0.20253
booster[8]:
0:[f31<23.05] yes=1,no=2,missing=1
	1:leaf=-0.0251688
	2:leaf=0.0299844
booster[9]:
0:leaf=-0.024912
booster[10]:
0:[f54<4.06522] yes=1,no=2,missing=1
	1:[f42<0.5] yes=3,no=4,missing=3
		3:leaf=0.0706681
		4:[f23<0.0556713] yes=7,no=8,missing=7
			7:leaf=-0.0230799
			8:[f11<237.114] yes=15,no=16,missing=16
				15:leaf=-0.0175897
				16:leaf=0.0596975
	2:[f2<0.00859609] yes=5,no=6,missing=6
		5:[f4<0.354133] yes=9,no=10,missing=10
			9:leaf=0.0125271
			10:[f11<82.7634] yes=19,no=20,missing=20
				19:leaf=0.0431992
				20:leaf=0.241742
		6:[f54<8.46479] yes=11,no=12,missing=12
			11:[f8<5.77468] yes=21,no=22,missing=21
				21:[f11<396.236] yes=25,no=26,missing=25
					25:leaf=0.172759
					26:leaf=0.0299844
				22:leaf=0.00539216
			12:[f42<226] yes=23,no=24,missing=23
				23:[f23<0.0771985] yes=29,no=30,missing=29
					29:leaf=-0.0110198
					30:leaf=0.0596975
				24:[f23<0.0191843] yes=31,no=32,missing=32
					31:leaf=-0
					32:[f42<831.5] yes=39,no=40,missing=39
						39:leaf=0.129621
						40:leaf=-0
booster[11]:
0:[f7<0.00389821] yes=1,no=2,missing=1
	1:[f13<-0.252524] yes=3,no=4,missing=3
		3:[f35<-84.5435] yes=7,no=8,missing=7
			7:[f35<-87.7111] yes=15,no=16,missing=15
				15:leaf=-0.0106818
				16:leaf=0.0773916
			8:leaf=-0.0186255
		4:leaf=-0.0233011
	2:[f13<1.89966] yes=5,no=6,missing=6
		5:[f35<-82.8801] yes=11,no=12,missing=12
			11:[f7<0.0185192] yes=23,no=24,missing=24
				23:[f5<36.4253] yes=35,no=36,missing=35
					35:leaf=0.116664
					36:leaf=-0
				24:leaf=-0.00354282
			12:leaf=-0.00312307
		6:leaf=-0.01219
booster[12]:
0:leaf=-0.0223788
booster[13]:
0:[f54<68.75] yes=1,no=2,missing=2
	1:[f51<0.5] yes=3,no=4,missing=3
		3:leaf=-0.0232152
		4:[f31<-7.35417] yes=9,no=10,missing=9
			9:leaf=0.069311
			10:leaf=-0.0195226
	2:[f44<0.5] yes=5,no=6,missing=5
		5:[f51<0.5] yes=11,no=12,missing=11
			11:[f30<5.74333] yes=23,no=24,missing=23
				23:[f3<-0.00408188] yes=31,no=32,missing=32
					31:leaf=0.073673
					32:leaf=-0
				24:leaf=-0.0166328
			12:[f5<18.2009] yes=25,no=26,missing=26
				25:[f31<2.075] yes=35,no=36,missing=36
					35:leaf=-0
					36:leaf=0.129476
				26:leaf=0.0136089
		6:leaf=0.103207
booster[14]:
0:[f54<4.83333] yes=1,no=2,missing=2
	1:[f8<1.10701] yes=3,no=4,missing=4
		3:leaf=-0
		4:[f31<21.406] yes=7,no=8,missing=8
			7:leaf=0.202065
			8:[f26<0.5] yes=13,no=14,missing=13
				13:leaf=0.100084
				14:leaf=-0
	2:[f8<6.03553] yes=5,no=6,missing=5
		5:[f17<0.883917] yes=9,no=10,missing=9
			9:[f31<11.975] yes=15,no=16,missing=15
				15:leaf=-0.0244778
				16:[f8<3.14172] yes=21,no=22,missing=22
					21:leaf=-0.0167029
					22:[f17<0.629299] yes=29,no=30,missing=29
						29:leaf=-0.00874922
						30:leaf=0.0691928
			10:[f8<1.42085] yes=17,no=18,missing=17
				17:leaf=-0.011496
				18:leaf=0.10068
		6:[f31<-5.95857] yes=11,no=12,missing=11
			11:leaf=-0.00871222
			12:leaf=0.139385
booster[15]:
0:leaf=-0.0258768
booster[16]:
0:leaf=-0.0225794
booster[17]:
0:[f35<-76.1036] yes=1,no=2,missing=1
	1:leaf=-0.0225668
	2:[f35<-75.1537] yes=5,no=6,missing=6
		5:leaf=0.0783256
		6:leaf=-0.023013
booster[18]:
0:[f53<0.0613375] yes=1,no=2,missing=1
	1:[f20<0.264612] yes=3,no=4,missing=3
		3:[f13<0.984888] yes=7,no=8,missing=7
			7:[f22<0.0573946] yes=15,no=16,missing=15
				15:[f53<0.010969] yes=27,no=28,missing=27
					27:[f13<-1.70522] yes=43,no=44,missing=44
						43:leaf=-0.0139527
						44:leaf=0.0680985
					28:[f53<0.0191392] yes=45,no=46,missing=45
						45:leaf=0.158396
						46:leaf=0.0577404
				16:leaf=-0
			8:[f32<-2.4] yes=17,no=18,missing=17
				17:leaf=-0.0109516
				18:[f1<12.7539] yes=33,no=34,missing=33
					33:leaf=-0
					34:[f53<0.00780685] yes=51,no=52,missing=51
						51:leaf=-0.00718291
						52:leaf=0.0718017
		4:leaf=0.164071
	2:[f22<0.023283] yes=5,no=6,missing=6
		5:[f32<-11.475] yes=11,no=12,missing=11
			11:[f4<4.96617] yes=19,no=20,missing=19
				19:leaf=0.122878
				20:leaf=-0
			12:leaf=-0.00265846
		6:leaf=-0.0187657
booster[19]:
0:[f10<2.2851] yes=1,no=2,missing=2
	1:leaf=-0
	2:[f37<17845.5] yes=5,no=6,missing=6
		5:[f37<4191.5] yes=7,no=8,missing=8
			7:leaf=-0.0240896
			8:[f52<34] yes=11,no=12,missing=12
				11:[f52<29.5] yes=13,no=14,missing=14
					13:leaf=-0.00654462
					14:leaf=0.0736912
				12:leaf=-0.014386
		6:leaf=-0.0267754
booster[20]:
0:leaf=-0.025073
booster[21]:
0:[f52<965] yes=1,no=2,missing=1
	1:[f52<203.5] yes=3,no=4,missing=4
		3:[f42<109.5] yes=7,no=8,missing=7
			7:[f5<16.7922] yes=15,no=16,missing=15
				15:leaf=-0.00466445
				16:[f4<6.55102] yes=31,no=32,missing=32
					31:leaf=0.0924173
					32:leaf=-0
			8:[f31<17.3] yes=17,no=18,missing=18
				17:[f31<12.1667] yes=33,no=34,missing=34
					33:[f4<4.5798] yes=47,no=48,missing=48
						47:leaf=-0
						48:leaf=0.109436
					34:leaf=0.177852
				18:[f31<20.925] yes=35,no=36,missing=35
					35:leaf=-0.00948705
					36:[f20<0.124739] yes=51,no=52,missing=52
						51:leaf=-0.00150979
						52:leaf=0.0844385
		4:[f31<-6.64808] yes=9,no=10,missing=9
			9:[f4<6.43443] yes=19,no=20,missing=20
				19:leaf=-0.0180658
				20:leaf=0.0515719
			10:leaf=-0.0248958
	2:[f31<-5.91486] yes=5,no=6,missing=5
		5:[f52<2199.5] yes=11,no=12,missing=12
			11:[f42<861.5] yes=21,no=22,missing=21
				21:[f7<0.00413606] yes=39,no=40,missing=39
					39:leaf=0.194309
					40:leaf=0.0163858
				22:leaf=0.00154088
			12:leaf=-0.0108635
		6:[f40<1.5] yes=13,no=14,missing=14
			13:[f27<1.5] yes=25,no=26,missing=25
				25:leaf=0.0625953
				26:leaf=-0.00967235
			14:leaf=-0.0140172
booster[22]:
0:[f34<47.1854] yes=1,no=2,missing=1
	1:[f13<-0.104831] yes=3,no=4,missing=3
		3:[f34<38.6625] yes=5,no=6,missing=5
			5:[f41<4.5] yes=9,no=10,missing=10
				9:leaf=-0.0205504
				10:[f34<31.3474] yes=17,no=18,missing=18
					17:[f34<30.2424] yes=25,no=26,missing=26
						25:leaf=-0.00865255
						26:leaf=0.0948946
					18:leaf=-0.00301145
			6:[f34<38.9543] yes=11,no=12,missing=12
				11:leaf=0.109627
				12:[f34<43.5539] yes=19,no=20,missing=20
					19:leaf=0.00661352
					20:[f8<1.3064] yes=31,no=32,missing=32
						31:leaf=-0
						32:leaf=0.0833561
		4:[f34<43.7452] yes=7,no=8,missing=8
			7:[f34<29.0544] yes=13,no=14,missing=14
				13:leaf=-0
				14:[f34<38.7381] yes=23,no=24,missing=24
					23:leaf=-0.0256184
					24:[f34<39.1111] yes=33,no=34,missing=34
						33:leaf=0.0736848
						34:leaf=-0.0188968
			8:leaf=-0
	2:leaf=0.109401
booster[23]:
0:leaf=-0.0239896
booster[24]:
0:[f37<9441] yes=1,no=2,missing=2
	1:[f7<0.00279346] yes=3,no=4,missing=3
		3:[f35<-105.833] yes=7,no=8,missing=8
			7:[f35<-115.746] yes=13,no=14,missing=14
				13:leaf=-0.000752727
				14:leaf=0.1173
			8:[f53<0.0102302] yes=15,no=16,missing=15
				15:[f35<-82.2255] yes=27,no=28,missing=28
					27:[f7<0.000391764] yes=39,no=40,missing=40
						39:leaf=-0
						40:leaf=0.0728353
					28:leaf=-0.0152891
				16:leaf=-0.0159441
		4:[f53<0.0151204] yes=9,no=10,missing=9
			9:[f35<-99.744] yes=17,no=18,missing=18
				17:leaf=-0.00559132
				18:[f35<-75.999] yes=31,no=32,missing=32
					31:[f53<0.00621824] yes=41,no=42,missing=41
						41:leaf=0.024533
						42:leaf=0.142762
					32:leaf=-0.00149597
			10:leaf=0.00390318
	2:[f53<0.0632372] yes=5,no=6,missing=5
		5:[f4<3.37451] yes=11,no=12,missing=12
			11:[f41<3.5] yes=21,no=22,missing=22
				21:[f37<77669] yes=33,no=34,missing=34
					33:leaf=0.0819375
					34:leaf=-0.00632052
				22:leaf=-0
			12:leaf=-0.0193088
		6:leaf=-0.0266288
booster[25]:
0:[f54<4.30543] yes=1,no=2,missing=2
	1:[f54<3.43421] yes=3,no=4,missing=4
		3:leaf=0.168393
		4:[f7<0.00402622] yes=9,no=10,missing=10
			9:leaf=0.130717
			10:leaf=-0
	2:[f13<6.8904] yes=5,no=6,missing=5
		5:[f54<8.57346] yes=11,no=12,missing=12
			11:[f13<1.98181] yes=17,no=18,missing=17
				17:leaf=-0.00559081
				18:leaf=0.0594945
			12:leaf=-0.0196679
		6:[f54<4.91604] yes=13,no=14,missing=13
			13:[f7<0.00182272] yes=21,no=22,missing=22
				21:leaf=0.132296
				22:leaf=0.0159133
			14:[f51<0.5] yes=23,no=24,missing=23
				23:leaf=-0.00795827
				24:leaf=0.0782462
booster[26]:
0:leaf=-0.0254123
booster[27]:
0:leaf=-0.0218702
booster[28]:
0:leaf=-0.0205434
booster[29]:
0:[f52<200.5] yes=1,no=2,missing=2
	1:[f28<1.5] yes=3,no=4,missing=3
		3:[f39<83792.8] yes=7,no=8,missing=7
			7:[f33<619.5] yes=15,no=16,missing=15
				15:[f52<7.5] yes=31,no=32,missing=32
					31:leaf=0.0131358
					32:[f39<2899.25] yes=49,no=50,missing=50
						49:leaf=0.0137161
						50:leaf=0.122695
				16:[f2<0.400429] yes=33,no=34,missing=34
					33:leaf=-0
					34:leaf=0.0660342
			8:leaf=-0
		4:[f0<65.4536] yes=9,no=10,missing=10
			9:leaf=-0.00995005
			10:leaf=0.0522112
	2:[f33<439.5] yes=5,no=6,missing=5
		5:[f2<0.034744] yes=11,no=12,missing=11
			11:[f28<0.5] yes=23,no=24,missing=23
				23:[f39<64763] yes=41,no=42,missing=41
					41:leaf=0.00219375
					42:[f0<93.5589] yes=59,no=60,missing=59
						59:leaf=0.079511
						60:leaf=-0.00236555
				24:leaf=-0.0198263
			12:[f0<17.853] yes=25,no=26,missing=26
				25:leaf=0.118347
				26:leaf=0.0128195
		6:[f52<5713.5] yes=13,no=14,missing=14
			13:leaf=-0.0184711
			14:[f52<6774.5] yes=29,no=30,missing=30
				29:leaf=0.120641
				30:leaf=-0.00590763
booster[30]:
0:leaf=-0.0237661
booster[31]:
0:leaf=-0.0257719
booster[32]:
0:[f54<4.06522] yes=1,no=2,missing=1
	1:[f36<12.8901] yes=3,no=4,missing=4
		3:[f36<-11.0242] yes=7,no=8,missing=8
			7:leaf=-0.0235353
			8:[f52<1446.5] yes=17,no=18,missing=18
				17:leaf=0.0384293
				18:leaf=-0.0178194
		4:[f52<372] yes=9,no=10,missing=10
			9:leaf=0.000178372
			10:leaf=0.120258
	2:[f36<-13.6634] yes=5,no=6,missing=6
		5:[f54<10.9444] yes=11,no=12,missing=12
			11:[f17<0.777228] yes=21,no=22,missing=21
				21:[f36<-17.4375] yes=31,no=32,missing=32
					31:leaf=0.0167452
					32:[f17<0.254502] yes=39,no=40,missing=39
						39:leaf=0.0149249
						40:leaf=0.166758
				22:[f54<6.16667] yes=33,no=34,missing=34
					33:leaf=-0.0179956
					34:[f36<-17.6086] yes=41,no=42,missing=42
						41:leaf=-0.0040501
						42:leaf=0.0913693
			12:[f42<253] yes=23,no=24,missing=23
				23:[f2<0.0672669] yes=35,no=36,missing=36
					35:[f52<140.5] yes=43,no=44,missing=44
						43:leaf=-0.00298557
						44:leaf=0.0809256
					36:leaf=-0.0170168
				24:[f52<158] yes=37,no=38,missing=38
					37:leaf=0.0946202
					38:leaf=-0.00267091
		6:[f2<0.00999138] yes=13,no=14,missing=13
			13:leaf=0.170028
			14:leaf=0.00961589
booster[33]:
0:[f34<43.7543] yes=1,no=2,missing=1
	1:[f42<19.5] yes=3,no=4,missing=3
		3:[f8<0.720487] yes=7,no=8,missing=7
			7:leaf=-0.0016838
			8:leaf=0.0779688
		4:[f39<4180.25] yes=9,no=10,missing=10
			9:[f39<2346.25] yes=17,no=18,missing=18
				17:leaf=-0.0170876
				18:leaf=0.0572202
			10:[f2<0.274814] yes=19,no=20,missing=20
				19:[f2<0.0071809] yes=27,no=28,missing=28
					27:leaf=-0.0230813
					28:[f39<61156.2] yes=33,no=34,missing=34
						33:leaf=-0.00923144
						34:leaf=0.0484129
				20:leaf=-0.0241204
	2:[f34<44.6935] yes=5,no=6,missing=6
		5:[f42<1063.5] yes=11,no=12,missing=11
			11:leaf=0.148261
			12:leaf=-0.00689791
		6:[f32<4.5] yes=13,no=14,missing=13
			13:leaf=-0.0178713
			14:leaf=0.0602301
booster[34]:
0:leaf=-0.0217766
booster[35]:
0:[f42<81.5] yes=1,no=2,missing=1
	1:[f49<0.5] yes=3,no=4,missing=3
		3:[f37<3869.5] yes=7,no=8,missing=8
			7:[f6<0.0113068] yes=15,no=16,missing=15
				15:[f6<7.72228e-05] yes=25,no=26,missing=26
					25:leaf=0.0130164
					26:leaf=0.103111
				16:leaf=-0.00166136
			8:[f6<0.00354275] yes=17,no=18,missing=18
				17:leaf=-0.00831555
				18:[f36<-16.8765] yes=29,no=30,missing=29
					29:leaf=0.00955065
					30:leaf=0.087648
		4:[f36<-18.1432] yes=9,no=10,missing=10
			9:leaf=0.0467359
			10:leaf=-0.0151541
	2:[f37<8277] yes=5,no=6,missing=6
		5:[f18<0.0651633] yes=11,no=12,missing=12
			11:[f36<-14.5103] yes=21,no=22,missing=22
				21:leaf=0.0837506
				22:leaf=-0.00589013
			12:leaf=-0.0176366
		6:leaf=-0.0239463
booster[36]:
0:[f31<-6.54485] yes=1,no=2,missing=1
	1:[f31<-9.10714] yes=3,no=4,missing=4
		3:[f47<0.5] yes=7,no=8,missing=7
			7:leaf=-0.00945465
			8:leaf=0.11214
		4:leaf=-0.0125465
	2:[f39<58345.8] yes=5,no=6,missing=6
		5:[f39<44489.2] yes=11,no=12,missing=12
			11:[f48<0.5] yes=19,no=20,missing=19
				19:[f32<13.6846] yes=33,no=34,missing=34
					33:leaf=0.0811453
					34:leaf=-0.00211742
				20:leaf=-0
			12:[f32<-11.9117] yes=21,no=22,missing=22
				21:leaf=-0.00583811
				22:leaf=0.141287
		6:[f31<-3.05] yes=13,no=14,missing=14
			13:[f32<-9.06667] yes=23,no=24,missing=24
				23:leaf=0.111681
				24:leaf=-0.00275618
			14:[f33<1111] yes=25,no=26,missing=26
				25:leaf=-0.00124492
				26:[f47<0.5] yes=39,no=40,missing=39
					39:leaf=0.0108693
					40:leaf=0.0772843
booster[37]:
0:leaf=-0.0260882
booster[38]:
0:leaf=-0.0236666
booster[39]:
0:leaf=-0.0204567
booster[40]:
0:[f53<0.0606602] yes=1,no=2,missing=1
	1:[f51<0.5] yes=3,no=4,missing=3
		3:[f11<199.347] yes=7,no=8,missing=7
			7:[f11<0.0392397] yes=13,no=14,missing=14
				13:leaf=0.00795251
				14:[f53<0.00328078] yes=25,no=26,missing=25
					25:leaf=0.0214283
					26:leaf=0.111633
			8:[f8<0.286618] yes=15,no=16,missing=16
				15:leaf=0.0925311
				16:[f8<1.42569] yes=27,no=28,missing=28
					27:leaf=-0.00678708
					28:[f8<4.06247] yes=45,no=46,missing=46
						45:leaf=0.0505986
						46:leaf=-0.0116497
		4:[f8<2.21977] yes=9,no=10,missing=9
			9:[f5<9.31899] yes=17,no=18,missing=18
				17:leaf=-0
				18:[f53<0.00543623] yes=31,no=32,missing=31
					31:leaf=-0.00378948
					32:leaf=0.0900831
			10:leaf=-0.0184006
	2:[f0<905.855] yes=5,no=6,missing=5
		5:[f11<480.799] yes=11,no=12,missing=11
			11:[f53<0.134976] yes=19,no=20,missing=19
				19:[f11<136.175] yes=33,no=34,missing=34
					33:[f51<0.5] yes=49,no=50,missing=49
						49:leaf=0.0760802
						50:leaf=-0.00583804
					34:[f8<1.22624] yes=51,no=52,missing=52
						51:leaf=0.0448647
						52:leaf=-0.017712
				20:leaf=-0.0225958
			12:[f0<51.473] yes=21,no=22,missing=22
				21:leaf=0.100206
				22:leaf=-0.00507136
		6:leaf=0.102578
booster[41]:
0:leaf=-0.0245381
booster[42]:
0:leaf=-0.0244283
booster[43]:
0:[f48<0.5] yes=1,no=2,missing=1
	1:[f4<1.31945] yes=3,no=4,missing=4
		3:[f32<10.3] yes=7,no=8,missing=7
			7:leaf=-0.00334254
			8:[f38<1.44883e+09] yes=17,no=18,missing=18
				17:leaf=-0.0110015
				18:leaf=0.10057
		4:[f47<0.5] yes=9,no=10,missing=9
			9:[f32<-11.85] yes=19,no=20,missing=20
				19:leaf=0.104735
				20:[f3<-0.000347255] yes=29,no=30,missing=30
					29:[f32<-8.7] yes=41,no=42,missing=41
						41:leaf=0.00318771
						42:leaf=0.100945
					30:[f32<2.70139] yes=43,no=44,missing=44
						43:leaf=-0.00676292
						44:leaf=0.0252386
			10:[f32<-8.01389] yes=21,no=22,missing=22
				21:leaf=-0.0167832
				22:[f32<-4.49286] yes=31,no=32,missing=31
					31:[f38<1.45008e+09] yes=45,no=46,missing=46
						45:leaf=0.119959
						46:leaf=0.00274924
					32:[f32<11.6375] yes=47,no=48,missing=48
						47:leaf=-0.0173313
						48:leaf=0.0437551
	2:[f38<1.45035e+09] yes=5,no=6,missing=5
		5:[f32<-8.275] yes=11,no=12,missing=12
			11:leaf=-0.0026774
			12:[f32<-2.975] yes=23,no=24,missing=23
				23:leaf=0.142713
				24:leaf=0.0396466
		6:leaf=-0
booster[44]:
0:[f35<-122.163] yes=1,no=2,missing=2
	1:[f35<-122.389] yes=3,no=4,missing=4
		3:leaf=-0.00934981
		4:leaf=0.140369
	2:[f37<25631] yes=5,no=6,missing=5
		5:[f32<0.8] yes=7,no=8,missing=8
			7:[f17<0.795023] yes=11,no=12,missing=12
				11:[f35<-82.9491] yes=19,no=20,missing=20
					19:[f35<-87.8629] yes=31,no=32,missing=32
						31:leaf=-0.0101528
						32:leaf=0.0828827
					20:leaf=-0.0181103
				12:leaf=0.0818431
			8:[f39<68026.2] yes=13,no=14,missing=13
				13:leaf=-0.0163541
				14:[f17<0.486447] yes=25,no=26,missing=25
					25:leaf=0.0320435
					26:leaf=-0.00840375
		6:leaf=-0.0196599
booster[45]:
0:leaf=-0.0232499
booster[46]:
0:[f53<0.10247] yes=1,no=2,missing=1
	1:[f36<-12.9882] yes=3,no=4,missing=3
		3:[f20<0.213379] yes=7,no=8,missing=8
			7:[f12<-0.223067] yes=11,no=12,missing=12
				11:[f20<0.0167084] yes=19,no=20,missing=20
					19:leaf=-0
					20:[f7<7.04071e-05] yes=27,no=28,missing=28
						27:leaf=-0
						28:leaf=0.151502
				12:[f7<0.0062419] yes=21,no=22,missing=22
					21:[f36<-18.1542] yes=29,no=30,missing=30
						29:leaf=0.0110442
						30:leaf=0.0679366
					22:leaf=-0
			8:[f53<0.010753] yes=13,no=14,missing=13
				13:[f20<0.358586] yes=23,no=24,missing=23
					23:leaf=0.0447766
					24:leaf=-0.00404672
				14:[f53<0.0390292] yes=25,no=26,missing=25
					25:leaf=-0.0229406
					26:[f12<0.146816] yes=37,no=38,missing=38
						37:leaf=0.0727206
						38:leaf=-0.00833818
		4:[f20<0.000630517] yes=9,no=10,missing=9
			9:leaf=0.028801
			10:leaf=-0.0198855
	2:leaf=-0.0254279
booster[47]:
0:[f33<385.5] yes=1,no=2,missing=1
	1:[f22<0.097619] yes=3,no=4,missing=4
		3:leaf=-0.0232225
		4:[f1<27.386] yes=9,no=10,missing=10
			9:leaf=0.0721997
			10:leaf=-0.0178998
	2:[f48<0.5] yes=5,no=6,missing=5
		5:[f27<0.5] yes=11,no=12,missing=11
			11:[f1<0.316968] yes=17,no=18,missing=18
				17:leaf=-0.00224398
				18:[f1<145.442] yes=25,no=26,missing=25
					25:[f40<0.5] yes=33,no=34,missing=34
						33:leaf=-0
						34:leaf=0.0721174
					26:leaf=-0
			12:[f22<0.0115752] yes=19,no=20,missing=20
				19:leaf=-0
				20:[f2<0.0436475] yes=29,no=30,missing=30
					29:[f33<944.5] yes=37,no=38,missing=38
						37:leaf=0.08052
						38:leaf=-0.0135159
					30:leaf=0.102971
		6:leaf=-0.000240551
booster[48]:
0:leaf=-0.026798
booster[49]:
0:leaf=-0.0224206
booster[50]:
0:[f30<52.5709] yes=1,no=2,missing=1
	1:leaf=-0.0213769
	2:leaf=0.0333348
booster[51]:
0:[f17<0.56167] yes=1,no=2,missing=2
	1:[f54<16.1667] yes=3,no=4,missing=4
		3:[f18<0.0246192] yes=7,no=8,missing=8
			7:leaf=0.0896065
			8:[f17<0.288782] yes=15,no=16,missing=16
				15:[f36<-16.3178] yes=25,no=26,missing=26
					25:leaf=-0.00731974
					26:leaf=0.0664662
				16:leaf=-0.0115635
		4:[f22<0.074537] yes=9,no=10,missing=10
			9:[f42<7] yes=17,no=18,missing=17
				17:leaf=-0
				18:[f42<69] yes=29,no=30,missing=29
					29:leaf=0.129489
					30:[f12<1.15122] yes=41,no=42,missing=42
						41:leaf=-0
						42:leaf=0.0934584
			10:leaf=-0.00975503
	2:[f42<91.5] yes=5,no=6,missing=5
		5:[f54<16.5] yes=11,no=12,missing=12
			11:leaf=-0.0153777
			12:[f54<42.0556] yes=21,no=22,missing=22
				21:[f42<53.5] yes=31,no=32,missing=31
					31:leaf=0.125056
					32:leaf=-0
				22:[f22<0.0291986] yes=33,no=34,missing=33
					33:[f42<23] yes=43,no=44,missing=43
						43:leaf=0.00654989
						44:leaf=0.072482
					34:leaf=-0
		6:[f36<-20.1514] yes=13,no=14,missing=14
			13:leaf=0.0737433
			14:[f18<0.0440825] yes=23,no=24,missing=23
				23:[f20<0.0122342] yes=35,no=36,missing=35
					35:leaf=-0.00480331
					36:[f54<2.29302] yes=49,no=50,missing=49
						49:leaf=-0.0141783
						50:leaf=0.0702743
				24:leaf=-0.0157587
booster[52]:
0:[f31<23.15] yes=1,no=2,missing=1
	1:leaf=-0.0251985
	2:leaf=0.043715
booster[53]:
0:leaf=-0.0246464
booster[54]:
0:[f2<0.000522466] yes=1,no=2,missing=2
	1:[f37<7204] yes=3,no=4,missing=4
		3:leaf=-0.0199835
		4:[f17<0.888705] yes=7,no=8,missing=8
			7:[f37<83541] yes=13,no=14,missing=14
				13:leaf=0.131439
				14:leaf=0.0389366
			8:leaf=-0.00332289
	2:[f37<48292.5] yes=5,no=6,missing=5
		5:[f37<17142] yes=9,no=10,missing=9
			9:[f39<83706] yes=17,no=18,missing=18
				17:[f39<59173.5] yes=25,no=26,missing=26
					25:[f39<12632.8] yes=35,no=36,missing=36
						35:leaf=-0.0207394
						36:leaf=0.0347154
					26:leaf=-0.0184083
				18:[f13<0.280029] yes=27,no=28,missing=28
					27:leaf=-0.0119804
					28:leaf=0.0580727
			10:[f37<37803.5] yes=19,no=20,missing=20
				19:[f39<16914.5] yes=29,no=30,missing=30
					29:leaf=-0
					30:leaf=0.131469
				20:[f17<0.520388] yes=31,no=32,missing=32
					31:leaf=0.0768389
					32:leaf=-0.0113255
		6:[f17<0.433271] yes=11,no=12,missing=12
			11:leaf=0.0366306
			12:leaf=-0.0227475
booster[55]:
0:[f6<0.00613573] yes=1,no=2,missing=2
	1:[f13<0.255275] yes=3,no=4,missing=4
		3:[f36<-17.6547] yes=7,no=8,missing=8
			7:[f2<0.111111] yes=15,no=16,missing=15
				15:leaf=-0
				16:leaf=0.0662377
			8:leaf=-0.0105193
		4:leaf=-0.0195173
	2:[f2<0.36226] yes=5,no=6,missing=6
		5:[f2<0.0114054] yes=11,no=12,missing=12
			11:leaf=-0.0057431
			12:leaf=0.104295
		6:[f32<2.5] yes=13,no=14,missing=14
			13:leaf=0.0280163
			14:leaf=-0.0131634
booster[56]:
0:leaf=-0.0226408
booster[57]:
0:[f11<210.782] yes=1,no=2,missing=1
	1:[f6<0.00215548] yes=3,no=4,missing=3
		3:[f34<28.1328] yes=7,no=8,missing=8
			7:leaf=0.0760327
			8:[f34<39.0319] yes=15,no=16,missing=15
				15:[f34<35.8338] yes=27,no=28,missing=27
					27:leaf=-0.00127968
					28:[f11<71.161] yes=43,no=44,missing=44
						43:leaf=0.0869612
						44:leaf=-0.00372013
				16:[f6<0.000626054] yes=29,no=30,missing=29
					29:leaf=-0.02215
					30:leaf=0.0205386
		4:[f22<0.0130461] yes=9,no=10,missing=10
			9:leaf=-0
			10:[f26<0.5] yes=19,no=20,missing=19
				19:[f34<42.5573] yes=33,no=34,missing=34
					33:[f31<15.8] yes=49,no=50,missing=49
						49:leaf=0.0799949
						50:leaf=-0
					34:leaf=-0.00214794
				20:leaf=-0
	2:leaf=-0.0185944
booster[58]:
0:[f13<4.92467] yes=1,no=2,missing=1
	1:[f39<57588.8] yes=3,no=4,missing=4
		3:[f39<22176.2] yes=7,no=8,missing=8
			7:leaf=-0.00242181
			8:[f49<0.5] yes=17,no=18,missing=17
				17:[f5<36.323] yes=25,no=26,missing=25
					25:leaf=0.09512
					26:leaf=0.0101203
				18:leaf=-0.0102499
		4:[f13<-2.5] yes=9,no=10,missing=9
			9:[f40<4.5] yes=19,no=20,missing=19
				19:leaf=-0.0169422
				20:leaf=0.0375063
			10:leaf=-0.022729
	2:[f35<-100.846] yes=5,no=6,missing=6
		5:leaf=-0.00647428
		6:[f35<-74.0442] yes=13,no=14,missing=14
			13:[f18<0.216622] yes=21,no=22,missing=22
				21:[f35<-88.5751] yes=31,no=32,missing=32
					31:[f35<-89.2277] yes=39,no=40,missing=40
						39:leaf=0.105425
						40:leaf=-0.0187245
					32:leaf=0.117979
				22:leaf=-0
			14:leaf=0.0364327
booster[59]:
0:leaf=-0.0254962
booster[60]:
0:leaf=-0.0214175
booster[61]:
0:leaf=-0.0195338
booster[62]:
0:[f37<4565.5] yes=1,no=2,missing=1
	1:[f30<7.58289] yes=3,no=4,missing=4
		3:leaf=0.00950847
		4:[f48<0.5] yes=9,no=10,missing=9
			9:[f47<0.5] yes=17,no=18,missing=17
				17:leaf=0.0987071
				18:leaf=0.0262437
			10:leaf=-0
	2:[f31<7.95714] yes=5,no=6,missing=6
		5:[f22<0.0130725] yes=11,no=12,missing=12
			11:leaf=0.0283147
			12:leaf=-0.0200164
		6:[f22<0.0676674] yes=13,no=14,missing=14
			13:[f30<25.8668] yes=23,no=24,missing=24
				23:[f26<5.5] yes=35,no=36,missing=35
					35:leaf=0.0164746
					36:leaf=0.0881845
				24:[f37<30389] yes=37,no=38,missing=38
					37:leaf=0.0396892
					38:leaf=0.115464
			14:leaf=-0.00582318
booster[63]:
0:leaf=-0.0243731
booster[64]:
0:[f37<8533] yes=1,no=2,missing=2
	1:[f31<7.5] yes=3,no=4,missing=4
		3:[f6<0.000366697] yes=5,no=6,missing=6
			5:leaf=0.0692707
			6:leaf=-0.016127
		4:leaf=-0.0220497
	2:leaf=-0.0259465
booster[65]:
0:[f36<-12.9763] yes=1,no=2,missing=1
	1:[f42<840.5] yes=3,no=4,missing=3
		3:[f28<3.5] yes=7,no=8,missing=7
			7:[f11<340.067] yes=15,no=16,missing=15
				15:[f26<0.5] yes=25,no=26,missing=25
					25:[f36<-19.0939] yes=35,no=36,missing=35
						35:leaf=0.0182826
						36:leaf=-0.0135839
					26:[f9<2.7246] yes=37,no=38,missing=38
						37:leaf=-0.0136139
						38:leaf=0.0690936
				16:[f9<10.8586] yes=27,no=28,missing=28
					27:[f11<714.556] yes=39,no=40,missing=40
						39:leaf=0.0976983
						40:leaf=-0.00139734
					28:leaf=-0.00710964
			8:[f9<69.4968] yes=17,no=18,missing=18
				17:[f41<4.5] yes=29,no=30,missing=30
					29:[f33<1125.5] yes=41,no=42,missing=41
						41:leaf=0.101736
						42:leaf=-0
					30:leaf=0.0135377
				18:leaf=-0.00422374
		4:leaf=-0.0164145
	2:[f9<37.0945] yes=5,no=6,missing=6
		5:[f36<-7.90553] yes=11,no=12,missing=12
			11:[f33<619.5] yes=23,no=24,missing=24
				23:leaf=-0.00586477
				24:[f11<102.803] yes=33,no=34,missing=34
					33:leaf=0.00961792
					34:leaf=0.102447
			12:leaf=-0.0115343
		6:leaf=-0.00458563
booster[66]:
0:[f10<338.628] yes=1,no=2,missing=1
	1:[f52<67.5] yes=3,no=4,missing=3
		3:leaf=-0.0249785
		4:[f25<0.5] yes=7,no=8,missing=7
			7:[f10<183.841] yes=13,no=14,missing=14
				13:leaf=-0.00169096
				14:[f7<0.00410753] yes=21,no=22,missing=21
					21:leaf=0.0108793
					22:leaf=0.0792741
			8:leaf=-0.020092
	2:[f52<81.5] yes=5,no=6,missing=6
		5:leaf=-0
		6:[f7<0.000410577] yes=11,no=12,missing=12
			11:leaf=-0.00869837
			12:[f52<1945.5] yes=17,no=18,missing=18
				17:leaf=0.135014
				18:leaf=-0
booster[67]:
0:[f6<0.0182216] yes=1,no=2,missing=1
	1:leaf=-0.0242758
	2:leaf=0.0159899
booster[68]:
0:[f8<1.11919] yes=1,no=2,missing=1
	1:[f1<218.979] yes=3,no=4,missing=4
		3:[f49<0.5] yes=7,no=8,missing=7
			7:[f54<4.61111] yes=15,no=16,missing=16
				15:leaf=-0.00980583
				16:[f36<-32.0645] yes=27,no=28,missing=28
					27:leaf=-0.00165058
					28:[f1<0.0158352] yes=43,no=44,missing=44
						43:leaf=0.0192988
						44:leaf=0.0958716
			8:leaf=-0.00333028
		4:[f54<1.425] yes=9,no=10,missing=10
			9:leaf=0.0569505
			10:leaf=-0.00610286
	2:[f54<73.25] yes=5,no=6,missing=6
		5:leaf=-0.0235042
		6:[f36<-13.9686] yes=13,no=14,missing=14
			13:[f1<257.572] yes=23,no=24,missing=24
				23:leaf=0.0520268
				24:leaf=-0.00360487
			14:leaf=-0.0143441
booster[69]:
0:[f37<50409] yes=1,no=2,missing=1
	1:[f5<86.5324] yes=3,no=4,missing=3
		3:[f6<4.41763e-06] yes=7,no=8,missing=8
			7:leaf=0.033643
			8:leaf=-0.0175094
		4:[f23<0.011269] yes=9,no=10,missing=9
			9:leaf=0.0840802
			10:leaf=-0.00112501
	2:[f35<-72.4305] yes=5,no=6,missing=6
		5:[f6<0.00636071] yes=11,no=12,missing=11
			11:[f35<-97.1841] yes=19,no=20,missing=20
				19:[f6<0.000107079] yes=25,no=26,missing=26
					25:leaf=0.069772
					26:leaf=-0.0127908
				20:[f23<0.0538915] yes=27,no=28,missing=27
					27:[f2<0.000522466] yes=35,no=36,missing=36
						35:leaf=0.0564215
						36:leaf=0.108981
					28:leaf=-0
			12:leaf=-0.00531809
		6:leaf=-0.0186195
booster[70]:
0:leaf=-0.0262063
booster[71]:
0:leaf=-0.0229247
booster[72]:
0:leaf=-0.0200137
booster[73]:
0:[f8<2.48478] yes=1,no=2,missing=1
	1:[f30<12.7143] yes=3,no=4,missing=4
		3:[f28<2.5] yes=7,no=8,missing=7
			7:[f22<0.0499276] yes=15,no=16,missing=16
				15:[f39<78113] yes=31,no=32,missing=32
					31:[f11<29.0247] yes=49,no=50,missing=50
						49:leaf=0.00120079
						50:leaf=0.080166
					32:leaf=-0.00388457
				16:leaf=-0
			8:leaf=-0.0156721
		4:[f20<0.150964] yes=9,no=10,missing=9
			9:[f39<81593.5] yes=19,no=20,missing=19
				19:[f11<0.183682] yes=35,no=36,missing=36
					35:leaf=-0.0113464
					36:[f28<3.5] yes=55,no=56,missing=55
						55:leaf=0.0754461
						56:leaf=-0.00967767
				20:leaf=-0.0134232
			10:[f27<3.5] yes=21,no=22,missing=21
				21:leaf=0.108216
				22:[f27<7.5] yes=37,no=38,missing=37
					37:leaf=-0.00664841
					38:leaf=0.0679087
	2:[f27<0.5] yes=5,no=6,missing=5
		5:[f11<196.195] yes=11,no=12,missing=12
			11:[f30<1.52771] yes=23,no=24,missing=23
				23:leaf=-0
				24:[f30<8.47769] yes=41,no=42,missing=42
					41:[f39<45599] yes=57,no=58,missing=58
						57:leaf=-0
						58:leaf=0.105462
					42:leaf=0.00238071
			12:leaf=-0.00353304
		6:leaf=-0.0143671
booster[74]:
0:leaf=-0.0232101
booster[75]:
0:leaf=-0.024106
booster[76]:
0:[f30<3.10483] yes=1,no=2,missing=2
	1:[f30<1.07347] yes=3,no=4,missing=4
		3:leaf=-0.0195635
		4:[f2<0.00372517] yes=7,no=8,missing=7
			7:[f7<0.0210682] yes=13,no=14,missing=14
				13:leaf=0.112191
				14:leaf=-0.0116519
			8:[f52<106] yes=15,no=16,missing=16
				15:leaf=0.107806
				16:leaf=-0.0139455
	2:[f39<59199] yes=5,no=6,missing=6
		5:leaf=-0.0116599
		6:[f33<1682.5] yes=11,no=12,missing=12
			11:[f30<9.48961] yes=21,no=22,missing=21
				21:[f30<7.51098] yes=31,no=32,missing=32
					31:[f30<3.39948] yes=47,no=48,missing=48
						47:leaf=0.0641764
						48:leaf=-0.00500238
					32:[f2<0.980271] yes=49,no=50,missing=49
						49:leaf=0.0983055
						50:leaf=-0.00142394
				22:[f52<30.5] yes=33,no=34,missing=34
					33:[f2<0.676665] yes=51,no=52,missing=52
						51:leaf=-0.00416936
						52:leaf=0.0838056
					34:leaf=-0.00356969
			12:[f52<761.5] yes=23,no=24,missing=24
				23:leaf=-0.009021
				24:[f23<0.0173877] yes=37,no=38,missing=38
					37:leaf=-0.00796229
					38:leaf=0.0864703
booster[77]:
0:[f25<0.5] yes=1,no=2,missing=1
	1:[f30<18.7857] yes=3,no=4,missing=3
		3:[f20<0.0654253] yes=7,no=8,missing=8
			7:leaf=-0.00848718
			8:[f30<2.74065] yes=17,no=18,missing=17
				17:[f30<1.66821] yes=27,no=28,missing=28
					27:leaf=0.0582306
					28:leaf=-0.00671866
				18:[f20<0.0823177] yes=29,no=30,missing=30
					29:leaf=-0
					30:[f20<0.433181] yes=45,no=46,missing=45
						45:leaf=0.0615265
						46:leaf=-0.00705923
		4:leaf=-0.0194938
	2:leaf=-0.02274
booster[78]:
0:leaf=-0.0207246
booster[79]:
0:[f39<67580] yes=1,no=2,missing=1
	1:[f20<0.00110132] yes=3,no=4,missing=4
		3:[f39<47442] yes=7,no=8,missing=8
			7:leaf=0.0571205
			8:leaf=-0.00494197
		4:leaf=-0.0165094
	2:[f20<0.115488] yes=5,no=6,missing=6
		5:[f44<0.5] yes=11,no=12,missing=11
			11:[f39<69397] yes=23,no=24,missing=24
				23:leaf=0.080042
				24:leaf=0.00566947
			12:leaf=0.100444
		6:[f2<0.872048] yes=13,no=14,missing=13
			13:leaf=-0.0147021
			14:leaf=0.0324185
booster[80]:
0:[f37<49149.5] yes=1,no=2,missing=1
	1:[f17<0.915537] yes=3,no=4,missing=3
		3:leaf=-0.0217647
		4:[f37<30608.5] yes=9,no=10,missing=10
			9:leaf=-0
			10:leaf=0.069442
	2:[f17<0.67094] yes=5,no=6,missing=6
		5:[f37<76006] yes=11,no=12,missing=12
			11:leaf=-0.0165506
			12:leaf=0.0411484
		6:[f38<1.44621e+09] yes=13,no=14,missing=14
			13:leaf=-0
			14:[f4<-0.85497] yes=23,no=24,missing=24
				23:leaf=-0
				24:leaf=0.096875
booster[81]:
0:leaf=-0.0261341
booster[82]:
0:leaf=-0.0211588
booster[83]:
0:[f53<0.0230952] yes=1,no=2,missing=1
	1:[f53<0.0180999] yes=3,no=4,missing=3
		3:[f32<-0.283333] yes=5,no=6,missing=5
			5:leaf=-0.0212177
			6:[f32<4.35] yes=11,no=12,missing=12
				11:[f11<254.279] yes=19,no=20,missing=20
					19:leaf=0.0847368
					20:leaf=-0.00225611
				12:leaf=-0.0133747
		4:leaf=0.0172019
	2:leaf=-0.0255541
booster[84]:
0:[f49<0.5] yes=1,no=2,missing=1
	1:[f0<532.462] yes=3,no=4,missing=3
		3:[f8<2.17201] yes=7,no=8,missing=8
			7:[f0<125.568] yes=15,no=16,missing=16
				15:[f36<-15.6324] yes=25,no=26,missing=26
					25:leaf=0.023313
					26:leaf=-0.0119958
				16:[f20<0.147632] yes=27,no=28,missing=28
					27:[f27<2.5] yes=43,no=44,missing=43
						43:leaf=0.0691391
						44:leaf=-0.00328246
					28:leaf=0.00465492
			8:[f0<15.1919] yes=17,no=18,missing=18
				17:leaf=0.0102618
				18:leaf=-0.0138989
		4:[f20<0.0915667] yes=9,no=10,missing=10
			9:leaf=0.106198
			10:leaf=-0
	2:[f4<6.24098] yes=5,no=6,missing=5
		5:[f20<0.0918284] yes=11,no=12,missing=12
			11:leaf=0.0484589
			12:[f36<-18.2436] yes=23,no=24,missing=23
				23:leaf=0.0415895
				24:leaf=0.113499
		6:leaf=0.0102396
booster[85]:
0:[f31<23.15] yes=1,no=2,missing=1
	1:leaf=-0.0253852
	2:leaf=0.0341282
booster[86]:
0:[f30<38.5659] yes=1,no=2,missing=1
	1:leaf=-0.0247078
	2:[f7<0.000165932] yes=5,no=6,missing=6
		5:leaf=0.0549411
		6:leaf=-0.0152319
booster[87]:
0:[f2<0.0149519] yes=1,no=2,missing=2
	1:[f33<944.5] yes=3,no=4,missing=4
		3:leaf=-0.00534406
		4:[f11<105.179] yes=9,no=10,missing=9
			9:[f39<52746.5] yes=15,no=16,missing=16
				15:leaf=0.0493155
				16:leaf=-0.0158751
			10:[f32<8.41583] yes=17,no=18,missing=17
				17:leaf=0.0971659
				18:leaf=-0.00452536
	2:[f39<58858] yes=5,no=6,missing=6
		5:[f8<3.99733] yes=11,no=12,missing=12
			11:[f32<8.04474] yes=19,no=20,missing=19
				19:leaf=-0.000857311
				20:[f11<220.253] yes=29,no=30,missing=30
					29:leaf=-0
					30:leaf=0.0980701
			12:leaf=-0.0194214
		6:[f4<4.68469] yes=13,no=14,missing=14
			13:[f39<59898] yes=23,no=24,missing=24
				23:leaf=0.0785994
				24:leaf=-0.0098896
			14:[f8<0.381818] yes=25,no=26,missing=26
				25:leaf=-0.0150973
				26:[f7<8.56877e-05] yes=37,no=38,missing=37
					37:[f32<11.6571] yes=45,no=46,missing=46
						45:leaf=-0.0047933
						46:leaf=0.044769
					38:leaf=0.0748877
booster[88]:
0:[f35<-89.1053] yes=1,no=2,missing=2
	1:[f35<-92.7965] yes=3,no=4,missing=4
		3:[f35<-122.171] yes=7,no=8,missing=8
			7:leaf=0.0489569
			8:leaf=-0.00472866
		4:[f2<0.0142216] yes=9,no=10,missing=9
			9:leaf=-0
			10:[f27<8.5] yes=21,no=22,missing=21
				21:leaf=0.117841
				22:leaf=-0.00519149
	2:[f2<0.61718] yes=5,no=6,missing=5
		5:leaf=-0.0165818
		6:[f47<0.5] yes=13,no=14,missing=13
			13:leaf=-0.00888862
			14:[f39<57327.8] yes=29,no=30,missing=30
				29:leaf=-0.00297522
				30:leaf=0.10143
booster[89]:
0:[f53<0.0053765] yes=1,no=2,missing=1
	1:[f53<0.00516136] yes=3,no=4,missing=3
		3:leaf=-0.00743456
		4:leaf=0.071949
	2:leaf=-0.0246557
booster[90]:
0:[f9<4.29137] yes=1,no=2,missing=1
	1:[f17<0.504098] yes=3,no=4,missing=3
		3:leaf=-0.00371967
		4:[f47<0.5] yes=9,no=10,missing=9
			9:[f2<2] yes=17,no=18,missing=18
				17:[f10<452.221] yes=31,no=32,missing=32
					31:leaf=0.0860247
					32:leaf=-0.00450119
				18:leaf=-0
			10:leaf=-0.0150349
	2:leaf=-0.0221682
booster[91]:
0:[f53<0.229893] yes=1,no=2,missing=1
	1:[f36<-7.8924] yes=3,no=4,missing=3
		3:[f34<29.7948] yes=5,no=6,missing=6
			5:[f11<198.123] yes=7,no=8,missing=8
				7:leaf=-0.00930964
				8:leaf=0.0955318
			6:[f13<1.93957] yes=9,no=10,missing=9
				9:leaf=-0.0258373
				10:[f20<0.0857469] yes=13,no=14,missing=14
					13:[f34<36.5316] yes=15,no=16,missing=16
						15:leaf=-0.0192312
						16:leaf=0.0441824
					14:leaf=-0.017959
		4:leaf=0.0819704
	2:leaf=0.0945817
booster[92]:
0:leaf=-0.0260447
booster[93]:
0:leaf=-0.0231785
booster[94]:
0:[f52<12.5] yes=1,no=2,missing=2
	1:[f52<8.5] yes=3,no=4,missing=4
		3:leaf=-0.0136882
		4:leaf=0.0473018
	2:leaf=-0.0232501
booster[95]:
0:[f52<201] yes=1,no=2,missing=2
	1:[f33<3576] yes=3,no=4,missing=4
		3:[f11<233.188] yes=7,no=8,missing=7
			7:[f52<46.5] yes=15,no=16,missing=16
				15:[f22<0.02774] yes=25,no=26,missing=25
					25:[f44<0.5] yes=39,no=40,missing=39
						39:leaf=0.0450627
						40:leaf=-0.0109135
					26:leaf=-0.0107449
				16:leaf=0.0736288
			8:leaf=-0.00855407
		4:[f52<7.5] yes=9,no=10,missing=10
			9:leaf=-0
			10:[f52<46.5] yes=19,no=20,missing=20
				19:leaf=0.0874808
				20:leaf=0.0425028
	2:[f33<884.5] yes=5,no=6,missing=5
		5:[f1<181.805] yes=11,no=12,missing=11
			11:[f52<991.5] yes=21,no=22,missing=22
				21:[f52<436.5] yes=35,no=36,missing=36
					35:leaf=-0.008944
					36:[f1<14.0451] yes=51,no=52,missing=52
						51:leaf=-0
						52:leaf=0.0777714
				22:[f1<0.0285025] yes=37,no=38,missing=37
					37:[f52<2439.5] yes=53,no=54,missing=54
						53:leaf=-0.0112333
						54:leaf=0.0538863
					38:leaf=-0.0221385
			12:leaf=0.0785154
		6:leaf=-0.0224497
booster[96]:
0:leaf=-0.0239334
booster[97]:
0:leaf=-0.024844
booster[98]:
0:[f54<4.06522] yes=1,no=2,missing=1
	1:[f54<8] yes=3,no=4,missing=4
		3:leaf=-0.0258146
		4:[f6<0.0808768] yes=7,no=8,missing=8
			7:[f28<2.5] yes=13,no=14,missing=13
				13:[f6<0.00276798] yes=25,no=26,missing=26
					25:[f6<0.000863146] yes=37,no=38,missing=38
						37:leaf=-0.020074
						38:leaf=0.027923
					26:leaf=-0.0230924
				14:leaf=0.0229134
			8:leaf=0.0366725
	2:[f54<16.75] yes=5,no=6,missing=6
		5:leaf=0.0825751
		6:[f28<0.5] yes=11,no=12,missing=11
			11:leaf=-0.00753813
			12:[f6<0.000323919] yes=23,no=24,missing=23
				23:leaf=0.0812037
				24:[f4<0.0296439] yes=35,no=36,missing=35
					35:leaf=0.0411192
					36:leaf=-0.0173874
booster[99]:
0:[f37<29307] yes=1,no=2,missing=1
	1:[f32<4.33333] yes=3,no=4,missing=4
		3:[f11<160.387] yes=7,no=8,missing=8
			7:leaf=-0.00592472
			8:[f37<6260.5] yes=17,no=18,missing=18
				17:leaf=-0
				18:[f32<-7.75] yes=31,no=32,missing=32
					31:leaf=-0.00596163
					32:leaf=0.0876726
		4:leaf=-0.00531868
	2:leaf=-0.0191779
booster[100]:
0:[f53<0.00539088] yes=1,no=2,missing=1
	1:[f22<0.0759615] yes=3,no=4,missing=4
		3:leaf=0.043648
		4:leaf=-0.0116754
	2:leaf=-0.0250635
booster[101]:
0:[f53<0.0107239] yes=1,no=2,missing=1
	1:[f35<-79.1446] yes=3,no=4,missing=4
		3:[f11<144.648] yes=7,no=8,missing=8
			7:[f17<0.433286] yes=15,no=16,missing=16
				15:leaf=0.00765674
				16:[f22<0.0713745] yes=27,no=28,missing=28
					27:leaf=0.0957066
					28:leaf=-0
			8:leaf=0.0105201
		4:leaf=-0.00993082
	2:[f53<0.102225] yes=5,no=6,missing=5
		5:[f23<0.0142351] yes=11,no=12,missing=12
			11:[f35<-111.372] yes=21,no=22,missing=22
				21:leaf=0.0818054
				22:[f6<0.00148826] yes=33,no=34,missing=34
					33:leaf=-0.0141543
					34:leaf=0.041472
			12:leaf=-0.0114173
		6:leaf=-0.0250943
booster[102]:
0:[f9<10.7133] yes=1,no=2,missing=2
	1:[f30<1.02907] yes=3,no=4,missing=4
		3:leaf=0.0715307
		4:[f32<5.25] yes=7,no=8,missing=8
			7:[f9<2.22557] yes=13,no=14,missing=14
				13:leaf=-0.0194414
				14:[f32<-2.05] yes=23,no=24,missing=24
					23:leaf=-0.00696519
					24:leaf=0.0458148
			8:leaf=-0.0233921
	2:[f30<32.722] yes=5,no=6,missing=6
		5:[f39<79493.8] yes=9,no=10,missing=10
			9:[f32<19.42] yes=17,no=18,missing=18
				17:leaf=0.0753466
				18:[f30<2.44401] yes=27,no=28,missing=28
					27:leaf=-0.0144392
					28:[f30<4.40717] yes=39,no=40,missing=40
						39:leaf=0.0710325
						40:leaf=-0.00474154
			10:[f40<4.5] yes=19,no=20,missing=20
				19:leaf=-0.00945813
				20:leaf=0.0607283
		6:leaf=-0.00811797
booster[103]:
0:leaf=-0.0255263
booster[104]:
0:[f19<-1e-06] yes=1,no=2,missing=1
	1:[f37<84952] yes=3,no=4,missing=3
		3:leaf=-0.0177249
		4:[f33<3154] yes=7,no=8,missing=8
			7:leaf=-0.00965492
			8:leaf=0.114855
	2:leaf=-0.0227963
booster[105]:
0:[f35<-86.7504] yes=1,no=2,missing=1
	1:leaf=-0.02623
	2:[f35<-85.4874] yes=3,no=4,missing=4
		3:[f11<199.818] yes=5,no=6,missing=6
			5:leaf=0.0949044
			6:leaf=-0.00485501
		4:leaf=-0.0172309
booster[106]:
0:[f20<0.261488] yes=1,no=2,missing=1
	1:[f27<0.5] yes=3,no=4,missing=3
		3:[f20<0.0173543] yes=7,no=8,missing=7
			7:[f5<99.3651] yes=13,no=14,missing=14
				13:leaf=-0.00938225
				14:leaf=0.0296761
			8:[f5<6.41858] yes=15,no=16,missing=15
				15:leaf=0.0533751
				16:leaf=0.0104052
		4:[f8<20.8075] yes=9,no=10,missing=10
			9:[f23<0.0289811] yes=17,no=18,missing=17
				17:leaf=-0.0170095
				18:[f26<3.5] yes=35,no=36,missing=35
					35:leaf=-0.00325361
					36:leaf=0.055413
			10:leaf=0.0370568
	2:[f23<0.00609169] yes=5,no=6,missing=6
		5:leaf=-0.00223829
		6:leaf=0.066776
booster[107]:
0:leaf=-0.0238154
booster[108]:
0:leaf=-0.024079
booster[109]:
0:[f54<3.85417] yes=1,no=2,missing=1
	1:[f53<0.00116009] yes=3,no=4,missing=3
		3:leaf=0.0288013
		4:[f53<0.00858385] yes=7,no=8,missing=7
			7:[f53<0.00847519] yes=13,no=14,missing=13
				13:leaf=-0.0128356
				14:leaf=0.0459186
			8:leaf=-0.0249391
	2:[f53<0.0450002] yes=5,no=6,missing=5
		5:[f2<0.0728744] yes=9,no=10,missing=9
			9:[f30<15.972] yes=17,no=18,missing=17
				17:[f53<0.0112916] yes=23,no=24,missing=23
					23:leaf=-0.00935764
					24:leaf=0.0496263
				18:leaf=-0.0134674
			10:leaf=-0.0233399
		6:[f2<0.0173221] yes=11,no=12,missing=11
			11:leaf=0.0865034
			12:[f53<0.119682] yes=19,no=20,missing=19
				19:leaf=-0
				20:[f30<14.3344] yes=27,no=28,missing=27
					27:leaf=0.0921679
					28:[f53<0.191895] yes=39,no=40,missing=39
						39:leaf=0.0587445
						40:leaf=-0.0158054
booster[110]:
0:[f7<0.00281665] yes=1,no=2,missing=1
	1:leaf=-0.0111983
	2:[f8<3.13617] yes=5,no=6,missing=6
		5:[f9<1.06705] yes=11,no=12,missing=12
			11:leaf=0.0097737
			12:[f5<-2.42681] yes=25,no=26,missing=25
				25:leaf=0.0094704
				26:leaf=0.0789444
		6:leaf=-0.013922
booster[111]:
0:[f35<-82.6405] yes=1,no=2,missing=2
	1:leaf=-0.0250004
	2:[f9<3.19184] yes=3,no=4,missing=4
		3:[f35<-80.9661] yes=5,no=6,missing=6
			5:leaf=0.0526776
			6:leaf=-0.00142386
		4:leaf=-0.0195365
booster[112]:
0:[f52<64.5] yes=1,no=2,missing=2
	1:[f20<0.311384] yes=3,no=4,missing=3
		3:[f35<-78.4937] yes=7,no=8,missing=7
			7:[f35<-90.0432] yes=15,no=16,missing=16
				15:[f52<16.5] yes=25,no=26,missing=26
					25:leaf=0.0747128
					26:leaf=0.00241917
				16:[f28<7.5] yes=27,no=28,missing=27
					27:[f7<0.00595702] yes=33,no=34,missing=33
						33:leaf=0.104322
						34:leaf=0.0254721
					28:leaf=-0
			8:leaf=-0.0196223
		4:leaf=-0.0118908
	2:leaf=-0.0172408
booster[113]:
0:[f17<0.72287] yes=1,no=2,missing=1
	1:[f39<55120.8] yes=3,no=4,missing=4
		3:[f39<47570.8] yes=7,no=8,missing=8
			7:[f17<0.0240964] yes=15,no=16,missing=15
				15:leaf=0.0387646
				16:leaf=-0.0152006
			8:leaf=0.0552574
		4:leaf=-0.0174418
	2:[f27<1.5] yes=5,no=6,missing=5
		5:[f39<57051] yes=11,no=12,missing=12
			11:[f1<155.395] yes=23,no=24,missing=23
				23:[f39<42027.2] yes=39,no=40,missing=40
					39:[f36<-17.692] yes=49,no=50,missing=50
						49:leaf=0.0529846
						50:leaf=-0.000812256
					40:leaf=0.0698393
				24:leaf=-0.0112013
			12:leaf=-0.000824213
		6:leaf=0.074171
booster[114]:
0:leaf=-0.0259018
booster[115]:
0:[f30<1.28069] yes=1,no=2,missing=2
	1:[f22<0.00709256] yes=3,no=4,missing=3
		3:leaf=0.0890839
		4:leaf=-0.0138396
	2:leaf=-0.024522
booster[116]:
0:[f54<43.5] yes=1,no=2,missing=2
	1:leaf=-0.0261828
	2:[f15<-1e-06] yes=3,no=4,missing=3
		3:[f7<0.0428608] yes=5,no=6,missing=6
			5:leaf=-0.0104096
			6:leaf=0.0360756
		4:leaf=-0.0228154
booster[117]:
0:[f53<0.0640786] yes=1,no=2,missing=1
	1:[f52<183.5] yes=3,no=4,missing=4
		3:[f23<0.0487108] yes=7,no=8,missing=8
			7:[f53<0.0107818] yes=13,no=14,missing=13
				13:[f23<0.0287394] yes=23,no=24,missing=24
					23:leaf=0.00271778
					24:leaf=0.0474751
				14:[f23<0.0386482] yes=25,no=26,missing=26
					25:leaf=0.0622026
					26:leaf=-0
			8:[f38<1.45138e+09] yes=15,no=16,missing=15
				15:leaf=0.0873344
				16:leaf=0.000729484
		4:[f38<1.4491e+09] yes=9,no=10,missing=10
			9:leaf=-0.0144345
			10:[f23<0.0357283] yes=19,no=20,missing=19
				19:leaf=0.00355307
				20:leaf=0.0559471
	2:[f10<-0.215362] yes=5,no=6,missing=6
		5:leaf=0.0837081
		6:[f52<4845.5] yes=11,no=12,missing=12
			11:[f53<0.134252] yes=21,no=22,missing=21
				21:[f52<440] yes=35,no=36,missing=36
					35:[f5<3.16808] yes=53,no=54,missing=53
						53:leaf=-0
						54:leaf=0.0642227
					36:leaf=-0.0219475
				22:leaf=-0.0203359
			12:leaf=0.0588971
booster[118]:
0:leaf=-0.0244935
booster[119]:
0:leaf=-0.0254576
booster[120]:
0:[f35<-84.0877] yes=1,no=2,missing=1
	1:[f34<42.9982] yes=3,no=4,missing=3
		3:[f17<0.718028] yes=7,no=8,missing=8
			7:[f35<-88.9247] yes=15,no=16,missing=16
				15:[f34<39.8257] yes=21,no=22,missing=22
					21:leaf=0.000524832
					22:leaf=0.0785968
				16:leaf=0.0826749
			8:[f35<-88.5052] yes=17,no=18,missing=17
				17:[f34<33.3471] yes=25,no=26,missing=26
					25:leaf=-0.00772338
					26:[f34<34.2328] yes=35,no=36,missing=36
						35:leaf=0.096055
						36:leaf=0.0307879
				18:leaf=-0.0147631
		4:leaf=-0.0189745
	2:leaf=-0.0207903
booster[121]:
0:[f52<67.5] yes=1,no=2,missing=1
	1:leaf=-0.0249415
	2:[f37<25093.5] yes=5,no=6,missing=6
		5:[f52<208.5] yes=7,no=8,missing=8
			7:leaf=-0
			8:[f52<2381.5] yes=13,no=14,missing=14
				13:[f23<0.0618156] yes=19,no=20,missing=19
					19:leaf=0.0740097
					20:leaf=-0
				14:leaf=-0
		6:[f34<44.0753] yes=9,no=10,missing=9
			9:[f52<88] yes=15,no=16,missing=16
				15:leaf=0.0666684
				16:leaf=-0.0251311
			10:leaf=0.078262
booster[122]:
0:[f7<0.0123808] yes=1,no=2,missing=1
	1:leaf=-0.0218872
	2:[f54<77.8333] yes=5,no=6,missing=6
		5:leaf=-0.017491
		6:[f0<36.9417] yes=11,no=12,missing=12
			11:leaf=0.0817674
			12:leaf=-0
booster[123]:
0:[f42<151.5] yes=1,no=2,missing=1
	1:[f52<65.5] yes=3,no=4,missing=4
		3:[f24<-1e-06] yes=7,no=8,missing=7
			7:leaf=-0.00808104
			8:[f42<44.5] yes=15,no=16,missing=15
				15:leaf=0.0542718
				16:[f3<-0.0120847] yes=23,no=24,missing=23
					23:leaf=-0.00625298
					24:leaf=0.0373397
		4:leaf=-0.00428245
	2:leaf=-0.0236906
booster[124]:
0:[f17<0.701531] yes=1,no=2,missing=2
	1:[f32<-2.05] yes=3,no=4,missing=3
		3:leaf=-0.0192744
		4:[f39<57333.2] yes=9,no=10,missing=10
			9:[f23<0.0521779] yes=19,no=20,missing=20
				19:leaf=0.0637626
				20:leaf=-0.0036971
			10:leaf=-0.016707
	2:[f32<-13.4354] yes=5,no=6,missing=5
		5:[f0<8.22368] yes=11,no=12,missing=12
			11:leaf=0.0552098
			12:leaf=-0.00544469
		6:[f39<71944.2] yes=13,no=14,missing=14
			13:leaf=0.0687989
			14:[f23<0.0337113] yes=27,no=28,missing=27
				27:leaf=-0.00344365
				28:leaf=0.0563235
booster[125]:
0:leaf=-0.025357
booster[126]:
0:leaf=-0.0211449
booster[127]:
0:leaf=-0.0201488
booster[128]:
0:[f54<16.2667] yes=1,no=2,missing=2
	1:[f18<0.0188859] yes=3,no=4,missing=4
		3:leaf=0.0707893
		4:[f32<7.1] yes=9,no=10,missing=10
			9:leaf=-0.0190692
			10:[f32<9.50865] yes=17,no=18,missing=18
				17:leaf=0.123651
				18:[f20<0.0375971] yes=31,no=32,missing=31
					31:leaf=-0.0235303
					32:[f32<19.6398] yes=41,no=42,missing=42
						41:leaf=-0.00955261
						42:leaf=0.0353781
	2:[f20<0.146459] yes=5,no=6,missing=5
		5:[f32<-2.4] yes=11,no=12,missing=12
			11:leaf=-0.0110115
			12:[f41<5.5] yes=21,no=22,missing=21
				21:[f32<10.85] yes=33,no=34,missing=33
					33:leaf=0.0288197
					34:leaf=-0.0150395
				22:[f4<3.6669] yes=35,no=36,missing=36
					35:leaf=-0
					36:leaf=0.0950878
		6:[f4<3.19135] yes=13,no=14,missing=13
			13:leaf=0.0724583
			14:leaf=0.0104746
booster[129]:
0:leaf=-0.0232159
booster[130]:
0:[f7<5.43494e-05] yes=1,no=2,missing=2
	1:[f53<0.015626] yes=3,no=4,missing=3
		3:[f2<0.478214] yes=5,no=6,missing=6
			5:leaf=0.0662807
			6:leaf=-0.0104293
		4:leaf=-0.0197911
	2:leaf=-0.0251949
booster[131]:
0:[f34<42.9982] yes=1,no=2,missing=1
	1:[f34<42.9782] yes=3,no=4,missing=3
		3:[f34<34.185] yes=7,no=8,missing=8
			7:[f34<33.347] yes=9,no=10,missing=10
				9:[f34<30.4033] yes=13,no=14,missing=14
					13:[f34<29.6289] yes=19,no=20,missing=20
						19:leaf=-0.0212132
						20:leaf=0.0528516
					14:leaf=-0.0229869
				10:leaf=0.0941623
			8:[f34<40.9983] yes=11,no=12,missing=11
				11:[f34<40.8749] yes=15,no=16,missing=15
					15:leaf=-0.000543324
					16:leaf=0.0853071
				12:leaf=-0.0202258
		4:leaf=0.0778966
	2:[f34<47.478] yes=5,no=6,missing=6
		5:leaf=-0.0250914
		6:leaf=0.0369446
booster[132]:
0:[f54<20.125] yes=1,no=2,missing=2
	1:leaf=-0.0221214
	2:[f11<151.023] yes=5,no=6,missing=5
		5:[f7<0.00123239] yes=9,no=10,missing=9
			9:[f7<0.000482965] yes=15,no=16,missing=15
				15:leaf=0.0011627
				16:leaf=0.0467247
			10:leaf=-0.0151122
		6:[f11<493.795] yes=11,no=12,missing=12
			11:[f7<0.000183484] yes=19,no=20,missing=20
				19:leaf=-0
				20:[f44<0.5] yes=31,no=32,missing=31
					31:leaf=0.0713313
					32:leaf=-0.00289217
			12:leaf=-0.0133009
booster[133]:
0:[f6<0.0140437] yes=1,no=2,missing=1
	1:[f12<-0.523274] yes=3,no=4,missing=3
		3:[f13<0.014398] yes=7,no=8,missing=8
			7:[f35<-85.2339] yes=11,no=12,missing=12
				11:leaf=-0.0103176
				12:leaf=0.0700108
			8:leaf=-0.0197383
		4:leaf=-0.0261337
	2:leaf=0.0307178
booster[134]:
0:[f52<23.5] yes=1,no=2,missing=2
	1:[f31<2.5] yes=3,no=4,missing=3
		3:[f3<0.0153852] yes=7,no=8,missing=8
			7:leaf=0.0889666
			8:leaf=0.0139515
		4:leaf=-0.00100719
	2:[f31<-9373.02] yes=5,no=6,missing=5
		5:[f23<0.0136244] yes=11,no=12,missing=12
			11:[f52<1189.5] yes=19,no=20,missing=20
				19:[f5<1.02077] yes=29,no=30,missing=29
					29:leaf=0.0154619
					30:leaf=0.0801015
				20:leaf=-0.00587055
			12:[f52<127.5] yes=21,no=22,missing=22
				21:[f52<50.5] yes=33,no=34,missing=34
					33:leaf=-0.0165684
					34:leaf=0.0304641
				22:leaf=-0.016248
		6:leaf=-0.0208513
booster[135]:
0:[f8<3.52195] yes=1,no=2,missing=2
	1:[f31<4.05769] yes=3,no=4,missing=3
		3:leaf=-0.0172543
		4:[f52<205] yes=9,no=10,missing=10
			9:leaf=-0.0171686
			10:leaf=0.0405496
	2:[f31<23.0413] yes=5,no=6,missing=6
		5:[f52<3743] yes=11,no=12,missing=12
			11:[f52<15.5] yes=23,no=24,missing=24
				23:leaf=-0.00336121
				24:leaf=0.0627521
			12:leaf=-0.00449045
		6:[f52<202] yes=13,no=14,missing=14
			13:leaf=-0.0208055
			14:leaf=0.0266098
booster[136]:
0:leaf=-0.024832
booster[137]:
0:[f34<30.168] yes=1,no=2,missing=2
	1:[f31<24.75] yes=3,no=4,missing=4
		3:leaf=-0.0200401
		4:[f11<305.243] yes=7,no=8,missing=8
			7:leaf=-0.00148015
			8:leaf=0.118076
	2:leaf=-0.0231341
booster[138]:
0:[f30<52.6658] yes=1,no=2,missing=1
	1:[f9<11.4403] yes=3,no=4,missing=3
		3:[f9<4.23429] yes=7,no=8,missing=8
			7:leaf=-0.0188369
			8:[f18<0.108509] yes=11,no=12,missing=11
				11:leaf=-0.00567526
				12:leaf=0.04552
		4:leaf=-0.0255315
	2:leaf=0.0416603
booster[139]:
0:[f17<0.493273] yes=1,no=2,missing=2
	1:[f30<5.23063] yes=3,no=4,missing=4
		3:leaf=-0.0111531
		4:[f10<503.417] yes=9,no=10,missing=10
			9:leaf=0.0670294
			10:leaf=-0.00842754
	2:[f10<94.1102] yes=5,no=6,missing=5
		5:[f30<1.44615] yes=11,no=12,missing=12
			11:leaf=-0.0131328
			12:[f30<4.94356] yes=17,no=18,missing=18
				17:[f17<0.676443] yes=25,no=26,missing=25
					25:leaf=-0.00641408
					26:leaf=0.0751494
				18:[f8<3.54724] yes=27,no=28,missing=27
					27:[f30<17.1833] yes=45,no=46,missing=45
						45:leaf=0.00951416
						46:leaf=0.0531688
					28:leaf=-0.0141839
		6:[f20<0.19893] yes=13,no=14,missing=13
			13:[f8<0.988586] yes=19,no=20,missing=20
				19:[f10<155.483] yes=29,no=30,missing=30
					29:leaf=-0.0188687
					30:leaf=0.0527073
				20:leaf=-0.00816608
			14:leaf=0.0405471
booster[140]:
0:leaf=-0.0243161
booster[141]:
0:leaf=-0.0247421
booster[142]:
0:[f54<3.85417] yes=1,no=2,missing=1
	1:[f23<0.06539] yes=3,no=4,missing=4
		3:leaf=-0.0179337
		4:[f54<1.87805] yes=9,no=10,missing=10
			9:leaf=-0.015978
			10:[f10<201.898] yes=19,no=20,missing=20
				19:leaf=-0.0142952
				20:leaf=0.0339889
	2:[f54<14.7778] yes=5,no=6,missing=6
		5:[f10<81.3019] yes=11,no=12,missing=12
			11:leaf=-0
			12:leaf=0.0628631
		6:[f11<197.26] yes=13,no=14,missing=13
			13:leaf=-0.00272151
			14:[f23<0.0296919] yes=27,no=28,missing=28
				27:leaf=-0.0073201
				28:leaf=0.0522866
booster[143]:
0:[f34<44.0751] yes=1,no=2,missing=1
	1:[f10<349.225] yes=3,no=4,missing=3
		3:[f10<4.54663] yes=7,no=8,missing=8
			7:leaf=0.0347932
			8:leaf=-0.0104307
		4:[f11<400.31] yes=9,no=10,missing=10
			9:[f0<213.518] yes=17,no=18,missing=18
				17:leaf=0.0854404
				18:leaf=-0.00198203
			10:leaf=-0.0107276
	2:[f34<44.6982] yes=5,no=6,missing=6
		5:leaf=0.128057
		6:[f34<47.1854] yes=11,no=12,missing=12
			11:leaf=-0.0104515
			12:leaf=0.0644182
booster[144]:
0:leaf=-0.0198826
booster[145]:
0:[f37<11374] yes=1,no=2,missing=2
	1:[f12<0.43916] yes=3,no=4,missing=4
		3:[f37<1574.5] yes=7,no=8,missing=8
			7:leaf=0.0172561
			8:[f18<0.0995495] yes=17,no=18,missing=17
				17:leaf=0.0814275
				18:leaf=0.0199987
		4:[f18<0.0681159] yes=9,no=10,missing=10
			9:[f36<-16.1334] yes=19,no=20,missing=20
				19:[f36<-18.4352] yes=35,no=36,missing=36
					35:leaf=-0.00477812
					36:leaf=0.0655131
				20:leaf=0.00295846
			10:leaf=-0
	2:[f12<-0.34408] yes=5,no=6,missing=6
		5:[f12<-1.15353] yes=11,no=12,missing=12
			11:leaf=-0.0182993
			12:leaf=0.0428416
		6:leaf=-0.0191148
booster[146]:
0:[f20<0.153748] yes=1,no=2,missing=1
	1:[f35<-96.7142] yes=3,no=4,missing=3
		3:[f35<-122.236] yes=7,no=8,missing=8
			7:leaf=0.0418474
			8:leaf=-0.0244063
		4:[f35<-81.5746] yes=9,no=10,missing=10
			9:[f35<-90.4233] yes=17,no=18,missing=18
				17:leaf=0.0680654
				18:[f35<-88.5014] yes=25,no=26,missing=26
					25:[f28<15.5] yes=35,no=36,missing=35
						35:leaf=-0.0188819
						36:leaf=0.0411305
					26:[f20<0.00110619] yes=37,no=38,missing=37
						37:leaf=0.017157
						38:leaf=0.0635021
			10:[f35<-74.4646] yes=19,no=20,missing=20
				19:[f51<0.5] yes=27,no=28,missing=27
					27:leaf=-0.0252721
					28:leaf=0.0174915
				20:[f35<-72.7414] yes=29,no=30,missing=30
					29:leaf=0.0673764
					30:leaf=-0.0201174
	2:[f35<-87.8069] yes=5,no=6,missing=6
		5:leaf=-0.0217872
		6:[f35<-81.9481] yes=13,no=14,missing=14
			13:leaf=0.019337
			14:leaf=-0.0217143
booster[147]:
0:leaf=-0.0261542
booster[148]:
0:leaf=-0.0218093
booster[149]:
0:leaf=-0.0198003
booster[150]:
0:[f49<0.5] yes=1,no=2,missing=1
	1:[f7<0.00337814] yes=3,no=4,missing=3
		3:[f11<228.353] yes=7,no=8,missing=7
			7:[f38<1.44727e+09] yes=15,no=16,missing=16
				15:leaf=-0.0183773
				16:[f38<1.45029e+09] yes=29,no=30,missing=29
					29:[f48<0.5] yes=39,no=40,missing=39
						39:leaf=0.0297395
						40:leaf=-0.0199529
					30:leaf=-0.00921764
			8:leaf=-0.0177159
		4:[f8<0.68301] yes=9,no=10,missing=10
			9:leaf=-0.00685241
			10:[f12<1.42844] yes=21,no=22,missing=22
				21:leaf=0.0472676
				22:leaf=-0
	2:[f8<2.94952] yes=5,no=6,missing=5
		5:[f38<1.45429e+09] yes=11,no=12,missing=12
			11:[f12<-1.57303] yes=23,no=24,missing=24
				23:leaf=-0.00422356
				24:leaf=0.0741507
			12:leaf=0.00724099
		6:leaf=-0
booster[151]:
0:leaf=-0.0221376
booster[152]:
0:leaf=-0.0247522
booster[153]:
0:[f30<3.46868] yes=1,no=2,missing=2
	1:[f9<95.2994] yes=3,no=4,missing=4
		3:[f30<1.07347] yes=7,no=8,missing=8
			7:leaf=-0.0179015
			8:[f44<0.5] yes=11,no=12,missing=11
				11:leaf=0.0612174
				12:leaf=-0.00853347
		4:leaf=-0.0202535
	2:[f9<40.0047] yes=5,no=6,missing=5
		5:[f4<4.54023] yes=9,no=10,missing=9
			9:[f9<4.53123] yes=13,no=14,missing=14
				13:leaf=-0.00588364
				14:[f30<22.0833] yes=19,no=20,missing=20
					19:leaf=-0
					20:leaf=0.0382039
			10:[f8<3.51974] yes=15,no=16,missing=16
				15:leaf=0.0559595
				16:leaf=-0
		6:leaf=-0.0246694
booster[154]:
0:[f13<0.256034] yes=1,no=2,missing=2
	1:[f30<18.3963] yes=3,no=4,missing=3
		3:[f3<-0.0934783] yes=7,no=8,missing=7
			7:leaf=-0.00434819
			8:[f30<4.725] yes=17,no=18,missing=17
				17:[f18<0.0035461] yes=27,no=28,missing=28
					27:leaf=0.0782126
					28:leaf=0.00398822
				18:leaf=0.0634634
		4:leaf=-0.0126113
	2:leaf=-0.0111511
booster[155]:
0:leaf=-0.0220311
booster[156]:
0:[f8<0.677567] yes=1,no=2,missing=2
	1:[f49<0.5] yes=3,no=4,missing=3
		3:[f22<0.0559386] yes=7,no=8,missing=8
			7:leaf=0.0641861
			8:leaf=0.00105349
		4:leaf=-0.012549
	2:[f27<0.5] yes=5,no=6,missing=5
		5:[f31<-0.25] yes=11,no=12,missing=12
			11:[f22<0.0177699] yes=19,no=20,missing=20
				19:leaf=-0.00541406
				20:leaf=0.076672
			12:[f8<1.55094] yes=21,no=22,missing=21
				21:[f36<-16.1424] yes=29,no=30,missing=30
					29:leaf=0.0309986
					30:leaf=-0.0045625
				22:leaf=-0.0218468
		6:leaf=-0.0197428
booster[157]:
0:[f42<756] yes=1,no=2,missing=1
	1:[f42<48.5] yes=3,no=4,missing=3
		3:[f7<3.96079e-06] yes=7,no=8,missing=7
			7:[f42<12.5] yes=15,no=16,missing=15
				15:leaf=-0.0207272
				16:leaf=0.0481442
			8:leaf=-0.0251233
		4:[f7<0.00185826] yes=9,no=10,missing=9
			9:[f35<-88.4549] yes=17,no=18,missing=18
				17:[f34<35.6767] yes=23,no=24,missing=24
					23:[f34<34.3107] yes=33,no=34,missing=34
						33:leaf=-0
						34:leaf=0.0752053
					24:[f34<43.005] yes=35,no=36,missing=36
						35:leaf=-0.0242619
						36:leaf=0.0306776
				18:[f35<-77.2553] yes=25,no=26,missing=26
					25:leaf=0.0570951
					26:leaf=-3.63301e-05
			10:leaf=-0.00718063
	2:[f32<-13.675] yes=5,no=6,missing=6
		5:leaf=-0
		6:[f35<-96.5802] yes=13,no=14,missing=14
			13:leaf=-0
			14:[f32<19.67] yes=21,no=22,missing=22
				21:[f11<490.103] yes=31,no=32,missing=31
					31:leaf=0.0638285
					32:[f35<-81.0524] yes=45,no=46,missing=46
						45:leaf=0.0576249
						46:leaf=-0.0175702
				22:leaf=0.00447413
booster[158]:
0:leaf=-0.0255926
booster[159]:
0:[f6<0.0154178] yes=1,no=2,missing=2
	1:leaf=-0.0236047
	2:[f25<1.5] yes=5,no=6,missing=5
		5:leaf=-0.0159405
		6:leaf=0.0580123
booster[160]:
0:[f48<0.5] yes=1,no=2,missing=1
	1:leaf=-0.0215863
	2:[f37<6605.5] yes=5,no=6,missing=6
		5:leaf=0.0761804
		6:leaf=-0.017719
booster[161]:
0:[f37<4359] yes=1,no=2,missing=2
	1:[f17<0.579216] yes=3,no=4,missing=3
		3:[f52<789.5] yes=7,no=8,missing=8
			7:[f37<467] yes=15,no=16,missing=16
				15:leaf=-0.00498686
				16:leaf=0.0718491
			8:leaf=0.00255654
		4:leaf=0.0165568
	2:[f6<0.00151425] yes=5,no=6,missing=5
		5:[f32<-14.3579] yes=11,no=12,missing=11
			11:[f17<0.5193] yes=21,no=22,missing=22
				21:leaf=0.0564686
				22:[f37<45086.5] yes=33,no=34,missing=34
					33:leaf=-0.0183144
					34:[f6<9.96104e-05] yes=47,no=48,missing=47
						47:leaf=-0
						48:leaf=0.0613355
			12:[f37<418505] yes=23,no=24,missing=24
				23:leaf=-0.0219958
				24:leaf=0.0625375
		6:[f52<644] yes=13,no=14,missing=14
			13:[f20<0.269114] yes=25,no=26,missing=26
				25:[f32<5.8] yes=37,no=38,missing=37
					37:leaf=-0.0126994
					38:leaf=0.0295385
				26:leaf=0.0413243
			14:[f20<0.0870284] yes=27,no=28,missing=28
				27:leaf=0.091175
				28:leaf=0.0134613
booster[162]:
0:leaf=-0.0230583
booster[163]:
0:leaf=-0.0246688
booster[164]:
0:[f10<144.718] yes=1,no=2,missing=1
	1:[f34<34.1847] yes=3,no=4,missing=3
		3:[f34<33.3471] yes=7,no=8,missing=8
			7:leaf=-0.00637499
			8:[f10<122.113] yes=15,no=16,missing=16
				15:leaf=0.0859014
				16:[f52<319] yes=27,no=28,missing=28
					27:leaf=-0.00860485
					28:leaf=0.0602709
		4:[f10<79.5835] yes=9,no=10,missing=9
			9:leaf=-0.0193098
			10:[f34<39.8441] yes=19,no=20,missing=20
				19:leaf=-0.0219997
				20:[f34<39.9878] yes=31,no=32,missing=32
					31:leaf=0.0726092
					32:[f52<986] yes=39,no=40,missing=40
						39:leaf=-0.0170831
						40:leaf=0.0251088
	2:[f0<2.96015] yes=5,no=6,missing=6
		5:leaf=-0.020612
		6:[f34<43.0053] yes=11,no=12,missing=12
			11:[f34<42.9806] yes=21,no=22,missing=22
				21:[f52<77.5] yes=33,no=34,missing=34
					33:[f34<40.9609] yes=41,no=42,missing=42
						41:leaf=0.0527521
						42:leaf=-0.0140476
					34:[f34<34.1871] yes=43,no=44,missing=44
						43:leaf=0.0312716
						44:leaf=-0.0162013
				22:leaf=0.064344
			12:leaf=-0.0115743
booster[165]:
0:[f54<13.5833] yes=1,no=2,missing=1
	1:[f53<0.00242592] yes=3,no=4,missing=3
		3:leaf=0.0355964
		4:leaf=-0.0191409
	2:[f36<-18.0574] yes=5,no=6,missing=6
		5:[f36<-19.9169] yes=11,no=12,missing=12
			11:leaf=0.00666152
			12:leaf=0.110273
		6:[f35<-84.5355] yes=13,no=14,missing=14
			13:[f35<-85.2269] yes=19,no=20,missing=20
				19:[f4<4.30059] yes=23,no=24,missing=24
					23:leaf=0.0296288
					24:leaf=-0.0187927
				20:leaf=0.0918366
			14:leaf=-0.0209988
booster[166]:
0:[f39<77129.2] yes=1,no=2,missing=1
	1:leaf=-0.0243316
	2:[f53<0.0142495] yes=3,no=4,missing=3
		3:[f39<81285.2] yes=5,no=6,missing=6
			5:leaf=0.065874
			6:leaf=-0.00748276
		4:leaf=-0.0214539
booster[167]:
0:[f8<1.10941] yes=1,no=2,missing=2
	1:[f17<0.461862] yes=3,no=4,missing=3
		3:[f8<0.118635] yes=7,no=8,missing=8
			7:[f38<1.45073e+09] yes=15,no=16,missing=16
				15:leaf=0.0503109
				16:leaf=-0.0147292
			8:leaf=-0.0184064
		4:[f17<0.946657] yes=9,no=10,missing=10
			9:[f35<-81.8949] yes=19,no=20,missing=20
				19:[f26<0.5] yes=31,no=32,missing=31
					31:leaf=0.0899994
					32:leaf=-0
				20:leaf=0.00777417
			10:leaf=-0.00977791
	2:[f35<-105.691] yes=5,no=6,missing=6
		5:leaf=0.0327409
		6:[f27<0.5] yes=13,no=14,missing=13
			13:[f8<2.35436] yes=25,no=26,missing=25
				25:leaf=0.00980839
				26:leaf=-0.0202238
			14:leaf=-0.0218878
booster[168]:
0:[f13<3.67489] yes=1,no=2,missing=2
	1:[f6<0.000281411] yes=3,no=4,missing=4
		3:[f31<4.7] yes=7,no=8,missing=8
			7:leaf=-0.0107225
			8:leaf=0.0350871
		4:leaf=-0.0191918
	2:[f31<21.6] yes=5,no=6,missing=6
		5:[f6<0.00277625] yes=11,no=12,missing=11
			11:[f48<0.5] yes=21,no=22,missing=21
				21:[f6<0.000538149] yes=33,no=34,missing=34
					33:leaf=0.0601216
					34:[f11<173.076] yes=47,no=48,missing=48
						47:leaf=-0
						48:leaf=0.0484315
				22:leaf=0.00293117
			12:leaf=-0
		6:[f2<1.85111] yes=13,no=14,missing=14
			13:leaf=0.0281549
			14:leaf=-0.0130851
booster[169]:
0:leaf=-0.0240354
booster[170]:
0:leaf=-0.0211849
booster[171]:
0:leaf=-0.0210919
booster[172]:
0:[f53<0.0612069] yes=1,no=2,missing=1
	1:[f8<2.10959] yes=3,no=4,missing=3
		3:[f22<0.0559386] yes=7,no=8,missing=7
			7:[f38<1.45397e+09] yes=15,no=16,missing=15
				15:[f22<0.0409241] yes=29,no=30,missing=29
					29:[f22<0.0264322] yes=47,no=48,missing=47
						47:leaf=0.0513329
						48:leaf=0.0162214
					30:leaf=0.0761365
				16:leaf=-0
			8:leaf=0.0124754
		4:leaf=0.00684559
	2:[f22<0.021649] yes=5,no=6,missing=6
		5:leaf=0.0170733
		6:[f10<55.5606] yes=13,no=14,missing=14
			13:[f53<0.300361] yes=25,no=26,missing=25
				25:[f38<1.4501e+09] yes=41,no=42,missing=42
					41:leaf=0.0875751
					42:leaf=-0.0041892
				26:leaf=-0.0113262
			14:leaf=-0.0198032
booster[173]:
0:leaf=-0.0218359
booster[174]:
0:leaf=-0.0235451
booster[175]:
0:[f53<0.228764] yes=1,no=2,missing=1
	1:[f53<0.0632372] yes=3,no=4,missing=3
		3:[f0<4.86953] yes=5,no=6,missing=6
			5:leaf=-0.020713
			6:[f39<83486.5] yes=11,no=12,missing=12
				11:[f6<0.00468516] yes=15,no=16,missing=16
					15:[f5<14.3239] yes=19,no=20,missing=20
						19:leaf=-0.00577992
						20:leaf=0.0218758
					16:leaf=-0.0147221
				12:leaf=0.0290885
		4:[f5<-1.13657] yes=7,no=8,missing=8
			7:leaf=-0.0053825
			8:leaf=0.0603922
	2:leaf=-0.0253483
booster[176]:
0:[f53<0.0944139] yes=1,no=2,missing=1
	1:[f34<38.6625] yes=3,no=4,missing=3
		3:[f34<30.4314] yes=5,no=6,missing=6
			5:leaf=0.0171479
			6:leaf=-0.0232477
		4:[f47<0.5] yes=7,no=8,missing=7
			7:[f53<0.0111428] yes=13,no=14,missing=13
				13:leaf=-0.0116571
				14:[f53<0.0572874] yes=21,no=22,missing=21
					21:[f53<0.0213152] yes=29,no=30,missing=29
						29:leaf=0.0138799
						30:leaf=0.0760846
					22:leaf=-0.0177035
			8:[f25<0.5] yes=15,no=16,missing=15
				15:[f8<0.510801] yes=23,no=24,missing=24
					23:leaf=-0.00250814
					24:[f53<0.00740781] yes=31,no=32,missing=31
						31:leaf=0.0145388
						32:leaf=0.10256
				16:leaf=-0
	2:leaf=-0.0258459
booster[177]:
0:[f6<0.0123814] yes=1,no=2,missing=1
	1:leaf=-0.0233877
	2:[f53<0.00650695] yes=5,no=6,missing=5
		5:leaf=0.093727
		6:leaf=-0.00570422
booster[178]:
0:[f9<6.64108] yes=1,no=2,missing=1
	1:[f0<255.701] yes=3,no=4,missing=4
		3:[f28<2.5] yes=7,no=8,missing=7
			7:leaf=0.033098
			8:leaf=-0
		4:leaf=0.000838206
	2:leaf=-0.0209096
booster[179]:
0:[f54<4.83333] yes=1,no=2,missing=2
	1:[f35<-80.8868] yes=3,no=4,missing=4
		3:leaf=0.0618655
		4:[f35<-74.666] yes=9,no=10,missing=10
			9:leaf=-0.0229267
			10:[f35<-72.4304] yes=17,no=18,missing=18
				17:leaf=0.0550381
				18:leaf=-0.0201929
	2:[f9<31.6677] yes=5,no=6,missing=5
		5:[f42<84.5] yes=11,no=12,missing=11
			11:leaf=-0.0260071
			12:[f54<6.12727] yes=19,no=20,missing=19
				19:[f33<795.5] yes=25,no=26,missing=25
					25:leaf=-0.0106101
					26:leaf=0.0431368
				20:leaf=-0.0179303
		6:[f35<-87.5598] yes=13,no=14,missing=14
			13:leaf=-0
			14:leaf=0.0547253
booster[180]:
0:leaf=-0.0242137
booster[181]:
0:[f17<0.0773142] yes=1,no=2,missing=1
	1:[f52<189.5] yes=3,no=4,missing=4
		3:[f52<74.5] yes=7,no=8,missing=8
			7:leaf=-0.0175099
			8:leaf=0.0572773
		4:leaf=-0.0195034
	2:leaf=-0.0234884
booster[182]:
0:leaf=-0.0194213
booster[183]:
0:[f37<15518.5] yes=1,no=2,missing=1
	1:[f2<0.648807] yes=3,no=4,missing=4
		3:[f1<100.799] yes=7,no=8,missing=8
			7:leaf=0.00670798
			8:leaf=0.0389454
		4:leaf=0.0443938
	2:[f1<187.956] yes=5,no=6,missing=5
		5:[f26<9.5] yes=11,no=12,missing=11
			11:[f32<-14.3067] yes=23,no=24,missing=23
				23:[f1<106.239] yes=39,no=40,missing=40
					39:leaf=-0.0132871
					40:leaf=0.0269538
				24:leaf=-0.0192692
			12:leaf=0.0618731
		6:leaf=0.0294655
booster[184]:
0:[f34<28.8563] yes=1,no=2,missing=2
	1:[f34<28.48] yes=3,no=4,missing=4
		3:leaf=-0.0137764
		4:leaf=0.0975885
	2:leaf=-0.0225798
booster[185]:
0:leaf=-0.0205051
booster[186]:
0:[f53<0.229206] yes=1,no=2,missing=1
	1:[f53<0.0416927] yes=3,no=4,missing=3
		3:[f42<103.5] yes=5,no=6,missing=5
			5:[f41<12] yes=9,no=10,missing=10
				9:leaf=-0.0157407
				10:leaf=0.0164679
			6:[f41<4.5] yes=11,no=12,missing=12
				11:[f6<0.0003866] yes=17,no=18,missing=17
					17:leaf=0.00799919
					18:[f6<0.00697258] yes=29,no=30,missing=30
						29:leaf=0.078711
						30:leaf=-0.00814895
				12:leaf=-0.0134823
		4:[f1<3.89015] yes=7,no=8,missing=8
			7:leaf=-0.0126357
			8:leaf=0.0619128
	2:leaf=-0.0249681
booster[187]:
0:[f53<0.0954457] yes=1,no=2,missing=1
	1:[f53<0.0197542] yes=3,no=4,missing=3
		3:[f31<6.6] yes=5,no=6,missing=6
			5:[f8<3.81123] yes=9,no=10,missing=10
				9:leaf=-0.00616442
				10:leaf=0.0698006
			6:leaf=-0.0112932
		4:[f31<10.5] yes=7,no=8,missing=8
			7:[f8<4.92439] yes=13,no=14,missing=13
				13:leaf=0.0937222
				14:leaf=0.00409335
			8:[f53<0.0273257] yes=15,no=16,missing=15
				15:leaf=0.066484
				16:leaf=-0.0139163
	2:leaf=-0.0255775
booster[188]:
0:leaf=-0.0223716
booster[189]:
0:[f53<0.0639098] yes=1,no=2,missing=1
	1:[f34<42.2775] yes=3,no=4,missing=3
		3:[f2<0.183717] yes=7,no=8,missing=7
			7:[f53<0.0108421] yes=13,no=14,missing=13
				13:leaf=0.0276565
				14:leaf=-0.00913336
			8:[f53<0.00643626] yes=15,no=16,missing=15
				15:leaf=-0.0088784
				16:[f27<0.5] yes=25,no=26,missing=25
					25:[f53<0.0102302] yes=35,no=36,missing=35
						35:leaf=0.0547794
						36:leaf=-0
					26:leaf=0.0833671
		4:leaf=-0.0104281
	2:leaf=-0.0206617
booster[190]:
0:[f53<0.214701] yes=1,no=2,missing=1
	1:[f42<570] yes=3,no=4,missing=3
		3:[f20<0.0140855] yes=7,no=8,missing=8
			7:[f42<105] yes=13,no=14,missing=13
				13:leaf=-0.0182277
				14:leaf=0.036059
			8:leaf=-0.021544
		4:[f39<60964.2] yes=9,no=10,missing=10
			9:leaf=0.0408629
			10:leaf=-0.00637126
	2:leaf=0.0547864
booster[191]:
0:leaf=-0.0242157
booster[192]:
0:[f30<0.994071] yes=1,no=2,missing=2
	1:leaf=0.0463894
	2:[f17<0.132704] yes=3,no=4,missing=3
		3:[f52<122] yes=5,no=6,missing=6
			5:[f52<74] yes=9,no=10,missing=10
				9:leaf=-0.0151617
				10:leaf=0.0864415
			6:leaf=-0.0196567
		4:leaf=-0.0240897
booster[193]:
0:[f37<6525.5] yes=1,no=2,missing=2
	1:[f37<1773.5] yes=3,no=4,missing=4
		3:leaf=-0.0213585
		4:[f6<0.00269515] yes=5,no=6,missing=5
			5:[f6<0.000415734] yes=7,no=8,missing=8
				7:leaf=-0.0143637
				8:[f4<0.0120974] yes=11,no=12,missing=12
					11:leaf=-0.00596524
					12:leaf=0.0878223
			6:leaf=-0.0138496
	2:leaf=-0.0258715
booster[194]:
0:[f37<8255] yes=1,no=2,missing=2
	1:[f30<7.25] yes=3,no=4,missing=4
		3:leaf=-0.00281736
		4:[f37<577] yes=9,no=10,missing=10
			9:leaf=-0.0109617
			10:leaf=0.0439859
	2:[f1<181.754] yes=5,no=6,missing=5
		5:[f30<25.8246] yes=11,no=12,missing=11
			11:leaf=-0.00821128
			12:leaf=0.0297175
		6:[f37<81034.5] yes=13,no=14,missing=14
			13:leaf=-0
			14:leaf=0.0540235
booster[195]:
0:leaf=-0.0203508
booster[196]:
0:leaf=-0.024263
booster[197]:
0:[f34<42.9982] yes=1,no=2,missing=1
	1:[f34<42.9812] yes=3,no=4,missing=3
		3:[f34<34.1873] yes=7,no=8,missing=7
			7:[f34<33.3472] yes=9,no=10,missing=9
				9:[f4<49.4887] yes=13,no=14,missing=14
					13:leaf=-0.0124349
					14:[f34<29.7398] yes=21,no=22,missing=22
						21:leaf=-0.0136305
						22:leaf=0.0391006
				10:leaf=0.076554
			8:leaf=-0.00385879
		4:leaf=0.0585373
	2:[f34<47.4782] yes=5,no=6,missing=6
		5:leaf=-0.0247428
		6:leaf=0.0308903
booster[198]:
0:[f6<0.00263206] yes=1,no=2,missing=2
	1:leaf=-0.0121239
	2:[f34<40.9983] yes=5,no=6,missing=5
		5:[f4<0.213727] yes=11,no=12,missing=12
			11:leaf=0.0419535
			12:leaf=-0.0128326
		6:[f6<0.0134011] yes=13,no=14,missing=13
			13:[f0<9.65199] yes=23,no=24,missing=24
				23:leaf=-0
				24:leaf=0.0667055
			14:leaf=-0.0108086
booster[199]:
0:[f53<0.00546513] yes=1,no=2,missing=1
	1:[f53<0.00242592] yes=3,no=4,missing=3
		3:leaf=-0.0155405
		4:leaf=0.0711878
	2:leaf=-0.0218187
booster[200]:
0:[f54<75.5] yes=1,no=2,missing=2
	1:leaf=-0.0189228
	2:[f37<6912.5] yes=5,no=6,missing=5
		5:[f23<0.0364004] yes=11,no=12,missing=11
			11:[f37<3088.5] yes=19,no=20,missing=19
				19:leaf=0.026024
				20:[f2<0.0105448] yes=33,no=34,missing=33
					33:[f37<4955.5] yes=47,no=48,missing=48
						47:leaf=0.0997212
						48:leaf=-0
					34:leaf=0.0208374
			12:leaf=-0
		6:[f2<0.0614631] yes=13,no=14,missing=13
			13:leaf=-0.017673
			14:leaf=0.0240922
booster[201]:
0:[f8<3.56415] yes=1,no=2,missing=1
	1:[f8<1.7227] yes=3,no=4,missing=4
		3:leaf=-0.0170001
		4:[f0<24.9464] yes=9,no=10,missing=9
			9:leaf=-0
			10:[f7<0.001455] yes=21,no=22,missing=22
				21:leaf=-0.0108523
				22:leaf=0.0364208
	2:[f0<1433.4] yes=5,no=6,missing=5
		5:leaf=0.046417
		6:leaf=-0.0073537
booster[202]:
0:leaf=-0.0253396
booster[203]:
0:leaf=-0.0232724
booster[204]:
0:leaf=-0.0185586
booster[205]:
0:[f49<0.5] yes=1,no=2,missing=1
	1:[f27<4.5] yes=3,no=4,missing=3
		3:[f2<0.802129] yes=7,no=8,missing=7
			7:[f2<0.605484] yes=15,no=16,missing=15
				15:[f3<0.000281531] yes=25,no=26,missing=25
					25:[f27<0.5] yes=37,no=38,missing=37
						37:leaf=0.0248671
						38:leaf=0.000522471
					26:leaf=-0.0202206
				16:leaf=0.0560231
			8:leaf=-0.0137778
		4:[f37<306715] yes=9,no=10,missing=10
			9:leaf=-0.0178783
			10:leaf=0.0525774
	2:[f37<15006.5] yes=5,no=6,missing=5
		5:leaf=0.0518199
		6:leaf=0.0178662
booster[206]:
0:leaf=-0.023021
booster[207]:
0:leaf=-0.0235812
booster[208]:
0:[f54<3.98611] yes=1,no=2,missing=1
	1:[f34<96.1674] yes=3,no=4,missing=4
		3:[f4<13.6191] yes=7,no=8,missing=8
			7:leaf=-0.0247589
			8:[f27<0.5] yes=17,no=18,missing=17
				17:leaf=-0.0201149
				18:[f54<7.22581] yes=27,no=28,missing=28
					27:leaf=-0.0150239
					28:leaf=0.0368053
		4:leaf=0.0226268
	2:[f37<4466] yes=5,no=6,missing=6
		5:leaf=-0.0186168
		6:[f34<29.7948] yes=13,no=14,missing=14
			13:leaf=-0.0160043
			14:[f34<43.0115] yes=23,no=24,missing=24
				23:leaf=0.0495788
				24:leaf=-0
booster[209]:
0:[f38<1.45054e+09] yes=1,no=2,missing=1
	1:[f31<3.36429] yes=3,no=4,missing=4
		3:[f6<0.00647191] yes=7,no=8,missing=8
			7:leaf=-0.00776441
			8:leaf=0.0727212
		4:leaf=-0.0189196
	2:[f38<1.45181e+09] yes=5,no=6,missing=6
		5:[f35<-82.8991] yes=11,no=12,missing=12
			11:[f35<-112.247] yes=23,no=24,missing=24
				23:leaf=-0.0117514
				24:[f31<-4.88] yes=37,no=38,missing=38
					37:leaf=-0.00261513
					38:[f17<0.675772] yes=41,no=42,missing=41
						41:leaf=0.0234686
						42:leaf=0.108193
			12:leaf=-6.20287e-05
		6:leaf=-0.00620717
booster[210]:
0:[f1<0.0185209] yes=1,no=2,missing=1
	1:[f8<2.00243] yes=3,no=4,missing=4
		3:[f8<1.63792] yes=5,no=6,missing=6
			5:leaf=-0.0104422
			6:[f30<8.95062] yes=11,no=12,missing=12
				11:leaf=0.0929536
				12:leaf=-0.0047054
		4:leaf=-0.0217845
	2:leaf=-0.025568
booster[211]:
0:[f42<140.5] yes=1,no=2,missing=1
	1:[f3<-0.011606] yes=3,no=4,missing=4
		3:leaf=0.045543
		4:[f32<-0.925] yes=9,no=10,missing=10
			9:[f3<0.000111272] yes=15,no=16,missing=16
				15:[f22<0.0630365] yes=19,no=20,missing=20
					19:leaf=0.0599233
					20:leaf=-0.00639977
				16:leaf=-0.0164111
			10:[f8<0.519429] yes=17,no=18,missing=17
				17:[f12<0.705463] yes=21,no=22,missing=21
					21:leaf=0.00500754
					22:[f22<0.00322581] yes=29,no=30,missing=30
						29:leaf=-0.00251343
						30:leaf=0.0777064
				18:leaf=-0.0101918
	2:leaf=-0.0229021
booster[212]:
0:[f54<4.83333] yes=1,no=2,missing=2
	1:[f1<535.383] yes=3,no=4,missing=3
		3:[f54<1.32885] yes=7,no=8,missing=8
			7:leaf=-0
			8:[f7<0.00321118] yes=15,no=16,missing=16
				15:leaf=0.0548321
				16:[f54<3.33333] yes=25,no=26,missing=26
					25:leaf=0.048643
					26:leaf=-0.000144955
		4:leaf=0.0066533
	2:[f8<5.87382] yes=5,no=6,missing=5
		5:leaf=-0.0204605
		6:leaf=0.0343455
booster[213]:
0:leaf=-0.0252235
booster[214]:
0:[f30<1.18273] yes=1,no=2,missing=2
	1:[f22<0.0030303] yes=3,no=4,missing=3
		3:leaf=0.120162
		4:leaf=-0.0146509
	2:leaf=-0.0235247
booster[215]:
0:leaf=-0.0198587
booster[216]:
0:[f37<4607] yes=1,no=2,missing=2
	1:[f52<184] yes=3,no=4,missing=4
		3:[f37<725.5] yes=7,no=8,missing=8
			7:leaf=0.00339296
			8:leaf=0.0549817
		4:leaf=0.0120609
	2:[f1<167.69] yes=5,no=6,missing=5
		5:[f17<0.519261] yes=11,no=12,missing=12
			11:[f52<841.5] yes=23,no=24,missing=24
				23:leaf=0.0345893
				24:leaf=-0.0126354
			12:[f31<50] yes=25,no=26,missing=26
				25:leaf=-0.0147457
				26:[f2<0.0649737] yes=45,no=46,missing=45
					45:leaf=-0.00270031
					46:[f52<41] yes=57,no=58,missing=58
						57:leaf=-0.0131442
						58:leaf=0.0778838
		6:[f2<0.003125] yes=13,no=14,missing=14
			13:leaf=-0.00984838
			14:[f31<0.815789] yes=29,no=30,missing=30
				29:leaf=-0.0104899
				30:[f37<36616] yes=47,no=48,missing=48
					47:leaf=0.0167559
					48:leaf=0.0856328
booster[217]:
0:leaf=-0.0235427
booster[218]:
0:leaf=-0.0230273
booster[219]:
0:[f2<0.00020768] yes=1,no=2,missing=2
	1:[f10<82.2626] yes=3,no=4,missing=3
		3:leaf=-0.01594
		4:[f31<13.95] yes=7,no=8,missing=7
			7:leaf=0.0504635
			8:leaf=-0.0140947
	2:[f36<-17.7572] yes=5,no=6,missing=6
		5:leaf=-0.0211644
		6:[f31<12.7607] yes=11,no=12,missing=11
			11:[f39<77616] yes=17,no=18,missing=18
				17:[f9<21.2915] yes=23,no=24,missing=24
					23:[f5<23.0245] yes=33,no=34,missing=33
						33:leaf=-0
						34:leaf=0.0383893
					24:leaf=-0.0192049
				18:[f31<6.9] yes=25,no=26,missing=26
					25:leaf=0.0529285
					26:leaf=0.00624419
			12:[f9<53.2712] yes=19,no=20,missing=19
				19:[f9<-0.314522] yes=27,no=28,missing=28
					27:leaf=-0.0119728
					28:leaf=0.0497385
				20:leaf=-0.00547846
booster[220]:
0:[f4<-0.252744] yes=1,no=2,missing=2
	1:[f35<-84.7622] yes=3,no=4,missing=4
		3:leaf=0.0737653
		4:leaf=-0.00891617
	2:[f32<-2.62] yes=5,no=6,missing=5
		5:[f4<0.466386] yes=7,no=8,missing=7
			7:[f9<550.993] yes=11,no=12,missing=12
				11:leaf=-0.0199815
				12:leaf=0.0120231
			8:leaf=0.00549578
		6:leaf=-0.0184405
booster[221]:
0:leaf=-0.0212155
booster[222]:
0:[f52<84.5] yes=1,no=2,missing=2
	1:[f11<208.689] yes=3,no=4,missing=4
		3:[f49<0.5] yes=7,no=8,missing=7
			7:leaf=0.041101
			8:leaf=0.000599704
		4:leaf=-0.00981627
	2:[f18<0.0248675] yes=5,no=6,missing=6
		5:leaf=0.0233216
		6:leaf=-0.0199609
booster[223]:
0:[f9<5.50445] yes=1,no=2,missing=2
	1:leaf=-0.0166352
	2:[f20<0.191245] yes=5,no=6,missing=6
		5:[f9<10.7736] yes=11,no=12,missing=12
			11:leaf=0.0111323
			12:[f31<21.3867] yes=21,no=22,missing=21
				21:leaf=0.0448388
				22:leaf=-0.00311284
		6:[f31<7.065] yes=13,no=14,missing=13
			13:leaf=-0.00249352
			14:leaf=0.0299124
booster[224]:
0:leaf=-0.0250963
booster[225]:
0:[f30<1.16127] yes=1,no=2,missing=2
	1:[f42<1507] yes=3,no=4,missing=3
		3:leaf=-0.0168143
		4:leaf=0.0797348
	2:leaf=-0.0221324
booster[226]:
0:leaf=-0.0185214
booster[227]:
0:[f35<-80.7938] yes=1,no=2,missing=2
	1:[f53<0.0774226] yes=3,no=4,missing=3
		3:[f28<3.5] yes=7,no=8,missing=7
			7:[f35<-88.3647] yes=13,no=14,missing=14
				13:[f7<8.3348e-05] yes=25,no=26,missing=26
					25:leaf=-0
					26:leaf=0.0383905
				14:[f35<-84.5784] yes=27,no=28,missing=28
					27:leaf=-0.0185145
					28:[f53<0.00873779] yes=41,no=42,missing=41
						41:leaf=-0.0139398
						42:leaf=0.0380655
			8:leaf=-0.0132277
		4:[f35<-114.626] yes=9,no=10,missing=10
			9:[f7<0.00152882] yes=17,no=18,missing=18
				17:leaf=-0.0107006
				18:leaf=0.0877139
			10:[f35<-92.301] yes=19,no=20,missing=20
				19:[f35<-93.086] yes=29,no=30,missing=30
					29:leaf=-0.0213747
					30:leaf=0.0498939
				20:leaf=-0.0257727
	2:[f35<-79.9732] yes=5,no=6,missing=6
		5:leaf=0.0740765
		6:[f4<0.284717] yes=11,no=12,missing=11
			11:[f35<-79.8114] yes=21,no=22,missing=22
				21:leaf=-0.0107828
				22:leaf=0.0548029
			12:leaf=-0.00114458
booster[228]:
0:leaf=-0.0228346
booster[229]:
0:leaf=-0.0240605
booster[230]:
0:[f10<110.977] yes=1,no=2,missing=1
	1:leaf=-0.00668554
	2:[f36<-12.9788] yes=5,no=6,missing=6
		5:[f29<1.5] yes=9,no=10,missing=9
			9:[f40<0.5] yes=17,no=18,missing=18
				17:leaf=0.0314166
				18:leaf=0.000337038
			10:[f36<-17.0682] yes=19,no=20,missing=20
				19:leaf=-0.00832852
				20:leaf=0.0519531
		6:[f52<2132] yes=11,no=12,missing=12
			11:leaf=0.0471793
			12:leaf=-0.00952168
booster[231]:
0:[f30<1.65162] yes=1,no=2,missing=1
	1:[f38<1.45151e+09] yes=3,no=4,missing=4
		3:[f30<1.12002] yes=7,no=8,missing=7
			7:leaf=-0.00480372
			8:leaf=0.0432863
		4:[f2<2] yes=9,no=10,missing=10
			9:leaf=0.0787794
			10:leaf=0.0118082
	2:[f38<1.44933e+09] yes=5,no=6,missing=6
		5:leaf=-0.0185746
		6:[f30<15.4125] yes=13,no=14,missing=14
			13:[f12<1.29713] yes=25,no=26,missing=25
				25:leaf=0.0281939
				26:leaf=-0.0159754
			14:leaf=-0.023715
booster[232]:
0:leaf=-0.0183298
booster[233]:
0:[f9<3.37451] yes=1,no=2,missing=1
	1:[f44<0.5] yes=3,no=4,missing=3
		3:[f35<-71.4587] yes=7,no=8,missing=7
			7:[f35<-79.2687] yes=13,no=14,missing=13
				13:[f35<-79.8895] yes=21,no=22,missing=21
					21:[f9<-1.3677] yes=23,no=24,missing=24
						23:leaf=0.0281927
						24:leaf=-0.000124008
					22:leaf=0.0777296
				14:leaf=-0.0228385
			8:leaf=0.0683802
		4:[f35<-79.9529] yes=9,no=10,missing=9
			9:leaf=0.0631792
			10:leaf=-0
	2:[f35<-111.743] yes=5,no=6,missing=6
		5:leaf=0.0240761
		6:leaf=-0.02444
booster[234]:
0:[f37<40404.5] yes=1,no=2,missing=1
	1:[f52<399] yes=3,no=4,missing=3
		3:leaf=-0.0244114
		4:[f34<39.8037] yes=9,no=10,missing=10
			9:[f34<34.835] yes=15,no=16,missing=16
				15:leaf=-0.0096765
				16:leaf=0.0461545
			10:leaf=-0.0122673
	2:[f35<-72.5268] yes=5,no=6,missing=6
		5:[f9<0.586392] yes=11,no=12,missing=12
			11:leaf=-0.0139677
			12:leaf=0.0456017
		6:leaf=-0.0228566
booster[235]:
0:leaf=-0.0244665
booster[236]:
0:leaf=-0.0197334
booster[237]:
0:[f37<7586.5] yes=1,no=2,missing=2
	1:[f5<506.008] yes=3,no=4,missing=4
		3:leaf=-0.0131223
		4:[f18<0.0575858] yes=9,no=10,missing=10
			9:leaf=-0.0131169
			10:leaf=0.0395035
	2:leaf=-0.024035
booster[238]:
0:[f53<0.104031] yes=1,no=2,missing=1
	1:[f34<31.9736] yes=3,no=4,missing=4
		3:[f42<954] yes=7,no=8,missing=7
			7:leaf=-0.026618
			8:leaf=0.0433864
		4:[f34<41.5922] yes=9,no=10,missing=9
			9:[f3<-0.00198579] yes=15,no=16,missing=16
				15:leaf=-0
				16:[f41<4.5] yes=25,no=26,missing=25
					25:[f42<197.5] yes=39,no=40,missing=39
						39:leaf=0.0367588
						40:leaf=-0.00443179
					26:leaf=0.0594311
			10:[f34<43.9266] yes=17,no=18,missing=18
				17:leaf=-0.00866904
				18:[f34<45.5728] yes=29,no=30,missing=30
					29:[f53<0.0263825] yes=47,no=48,missing=47
						47:leaf=0.0600991
						48:leaf=-0
					30:leaf=-0.0164595
	2:[f0<905.855] yes=5,no=6,missing=5
		5:leaf=-0.0119745
		6:leaf=0.0572005
booster[239]:
0:leaf=-0.022738
booster[240]:
0:leaf=-0.0252142
booster[241]:
0:[f17<0.705619] yes=1,no=2,missing=2
	1:[f6<0.00177158] yes=3,no=4,missing=4
		3:[f36<-9.77395] yes=7,no=8,missing=8
			7:[f17<0.230663] yes=15,no=16,missing=16
				15:leaf=-0
				16:leaf=0.0418025
			8:leaf=-0.0110208
		4:leaf=0.00829549
	2:[f36<-13.6277] yes=5,no=6,missing=6
		5:[f31<-5412.64] yes=11,no=12,missing=12
			11:leaf=0.0369068
			12:[f31<12.7875] yes=21,no=22,missing=21
				21:leaf=-0.020956
				22:[f31<13.0952] yes=37,no=38,missing=38
					37:leaf=0.04108
					38:leaf=-0.0141065
		6:leaf=0.0157199
booster[242]:
0:[f54<13.5833] yes=1,no=2,missing=1
	1:[f54<8.82778] yes=3,no=4,missing=4
		3:leaf=-0.0253448
		4:leaf=-0.00226665
	2:[f5<-1.09093] yes=5,no=6,missing=5
		5:leaf=0.0015451
		6:[f17<0.859198] yes=11,no=12,missing=12
			11:leaf=0.0734165
			12:leaf=-0.00153228
booster[243]:
0:[f43<0.5] yes=1,no=2,missing=1
	1:leaf=-0.0232237
	2:leaf=0.0366754
booster[244]:
0:[f8<1.83497] yes=1,no=2,missing=1
	1:[f4<4.69022] yes=3,no=4,missing=4
		3:[f23<0.0596175] yes=7,no=8,missing=8
			7:[f38<1.44773e+09] yes=15,no=16,missing=16
				15:leaf=-0
				16:leaf=0.0403966
			8:leaf=-0.0151767
		4:[f38<1.44737e+09] yes=9,no=10,missing=9
			9:leaf=0.0179605
			10:leaf=-0.0184211
	2:[f37<26179] yes=5,no=6,missing=6
		5:leaf=0.00394649
		6:leaf=-0.023976
booster[245]:
0:[f8<3.43389] yes=1,no=2,missing=2
	1:leaf=-0.0138737
	2:[f42<637.5] yes=5,no=6,missing=5
		5:[f4<15.2043] yes=11,no=12,missing=12
			11:[f48<0.5] yes=19,no=20,missing=19
				19:[f22<0.0217668] yes=33,no=34,missing=34
					33:leaf=0.00386162
					34:leaf=0.0456125
				20:leaf=-0.0155498
			12:[f22<0.0342612] yes=21,no=22,missing=21
				21:leaf=-0.0209552
				22:leaf=0.0276552
		6:leaf=0.0421469
booster[246]:
0:leaf=-0.0250373
booster[247]:
0:[f34<30.168] yes=1,no=2,missing=1
	1:leaf=0.00761686
	2:[f4<0.460806] yes=5,no=6,missing=6
		5:[f32<5.85] yes=11,no=12,missing=12
			11:leaf=-0.0181523
			12:[f34<39.9509] yes=15,no=16,missing=16
				15:leaf=-0.00896522
				16:[f20<0.0644828] yes=23,no=24,missing=24
					23:leaf=0.0909712
					24:leaf=-0.00751586
		6:leaf=-0.0229118
booster[248]:
0:leaf=-0.0195109
booster[249]:
0:[f49<0.5] yes=1,no=2,missing=1
	1:[f33<944.5] yes=3,no=4,missing=3
		3:[f32<-13.7763] yes=7,no=8,missing=8
			7:leaf=0.0567726
			8:[f54<2.11389] yes=17,no=18,missing=18
				17:leaf=-0.020625
				18:[f18<0.0604489] yes=25,no=26,missing=26
					25:[f4<128.977] yes=29,no=30,missing=30
						29:leaf=-0.0155607
						30:leaf=0.0348958
					26:[f9<12.3159] yes=31,no=32,missing=31
						31:leaf=0.00839336
						32:leaf=0.0505293
		4:[f32<18.2] yes=9,no=10,missing=10
			9:leaf=-0.0257355
			10:leaf=0.046733
	2:[f54<6.86364] yes=5,no=6,missing=6
		5:leaf=1.19277e-05
		6:leaf=0.0486876
booster[250]:
0:leaf=-0.0226234
booster[251]:
0:leaf=-0.0239269
booster[252]:
0:[f53<0.229893] yes=1,no=2,missing=1
	1:[f53<0.0632372] yes=3,no=4,missing=3
		3:[f11<277.268] yes=5,no=6,missing=5
			5:[f40<1.5] yes=9,no=10,missing=9
				9:leaf=0.0141867
				10:leaf=-0.0117691
			6:leaf=0.0306734
		4:[f42<989.5] yes=7,no=8,missing=7
			7:leaf=0.0471612
			8:leaf=-0
	2:leaf=-0.0246743
booster[253]:
0:[f47<0.5] yes=1,no=2,missing=1
	1:leaf=-0.00919081
	2:[f6<0.00104926] yes=5,no=6,missing=6
		5:leaf=-0.0145485
		6:[f33<1440.5] yes=13,no=14,missing=14
			13:leaf=0.0748562
			14:[f3<-0.000300391] yes=27,no=28,missing=27
				27:leaf=-0.0119403
				28:leaf=0.0684285
booster[254]:
0:leaf=-0.0221529
booster[255]:
0:[f54<73] yes=1,no=2,missing=2
	1:[f54<8.94444] yes=3,no=4,missing=4
		3:leaf=-0.0237397
		4:[f54<11.2964] yes=9,no=10,missing=10
			9:[f17<0.52586] yes=15,no=16,missing=16
				15:leaf=-0.00615568
				16:leaf=0.0617567
			10:leaf=-0.0157063
	2:[f36<-12.9861] yes=5,no=6,missing=6
		5:[f10<58.7817] yes=11,no=12,missing=12
			11:leaf=-0.0191764
			12:[f20<0.357491] yes=19,no=20,missing=20
				19:[f5<54.7948] yes=27,no=28,missing=27
					27:leaf=0.0471639
					28:leaf=-0.00964577
				20:leaf=-0.00600598
		6:leaf=-0.0167726
booster[256]:
0:[f27<3.5] yes=1,no=2,missing=1
	1:leaf=0.0141596
	2:leaf=0.0319348
booster[257]:
0:leaf=-0.0243194
booster[258]:
0:leaf=-0.0196066
booster[259]:
0:[f48<0.5] yes=1,no=2,missing=1
	1:leaf=-0.0212611
	2:[f35<-88.2161] yes=5,no=6,missing=5
		5:leaf=-0.0128171
		6:leaf=0.0503873
booster[260]:
0:[f20<0.170927] yes=1,no=2,missing=2
	1:[f1<303.881] yes=3,no=4,missing=3
		3:[f3<-0.0345238] yes=7,no=8,missing=7
			7:leaf=0.0116047
			8:leaf=-0.00853143
		4:[f20<0.062582] yes=9,no=10,missing=10
			9:leaf=0.0528097
			10:leaf=-0
	2:[f51<0.5] yes=5,no=6,missing=5
		5:[f25<2.5] yes=11,no=12,missing=11
			11:[f1<40.2772] yes=23,no=24,missing=24
				23:[f1<0.772655] yes=37,no=38,missing=38
					37:leaf=0.0377043
					38:leaf=-0.00713223
				24:leaf=0.0359958
			12:leaf=-0.00509475
		6:leaf=0.00353343
booster[261]:
0:leaf=-0.0224768
booster[262]:
0:leaf=-0.0221827
booster[263]:
0:[f35<-83.0941] yes=1,no=2,missing=2
	1:[f53<0.214701] yes=3,no=4,missing=3
		3:[f53<0.0417391] yes=7,no=8,missing=7
			7:[f35<-88.8255] yes=13,no=14,missing=14
				13:[f35<-105.001] yes=21,no=22,missing=22
					21:[f35<-118.343] yes=27,no=28,missing=28
						27:leaf=-0.0186058
						28:leaf=0.0498055
					22:leaf=-0.0155528
				14:[f38<1.44977e+09] yes=23,no=24,missing=24
					23:leaf=0.0428637
					24:leaf=-0.00277123
			8:leaf=0.0512976
		4:leaf=-0.0220198
	2:leaf=-0.0155201
booster[264]:
0:[f54<8.70833] yes=1,no=2,missing=2
	1:leaf=-0.0241873
	2:[f30<12.421] yes=5,no=6,missing=5
		5:[f30<1.27161] yes=9,no=10,missing=10
			9:leaf=-0.0155456
			10:[f11<181.077] yes=13,no=14,missing=14
				13:[f18<0.0412873] yes=17,no=18,missing=17
					17:leaf=0.0420735
					18:leaf=-0.00110526
				14:leaf=0.0374849
		6:leaf=-0.0142964
booster[265]:
0:[f6<0.024646] yes=1,no=2,missing=1
	1:leaf=-0.0197418
	2:leaf=0.0397324
booster[266]:
0:[f4<3.62328] yes=1,no=2,missing=2
	1:[f30<14.3398] yes=3,no=4,missing=4
		3:leaf=-0.00135521
		4:[f49<0.5] yes=9,no=10,missing=9
			9:leaf=0.0415701
			10:leaf=-0
	2:leaf=-0.012893
booster[267]:
0:[f54<4.68333] yes=1,no=2,missing=2
	1:[f0<748.86] yes=3,no=4,missing=3
		3:leaf=0.0453439
		4:leaf=-0.0155534
	2:[f8<3.58351] yes=5,no=6,missing=5
		5:[f34<35.2037] yes=9,no=10,missing=10
			9:[f34<34.5193] yes=13,no=14,missing=14
				13:leaf=-0.0190829
				14:leaf=0.037073
			10:leaf=-0.025978
		6:[f0<28.6218] yes=11,no=12,missing=12
			11:leaf=0.0372316
			12:leaf=-0.00140134
booster[268]:
0:leaf=-0.0248431
booster[269]:
0:[f23<0.00407326] yes=1,no=2,missing=1
	1:[f5<-2.49987] yes=3,no=4,missing=4
		3:leaf=0.0640099
		4:leaf=-0.0109601
	2:leaf=-0.0253606
booster[270]:
0:[f39<61866] yes=1,no=2,missing=1
	1:leaf=-0.0233723
	2:[f7<3.92049e-05] yes=5,no=6,missing=6
		5:leaf=0.0270893
		6:[f39<74868.2] yes=9,no=10,missing=10
			9:[f12<0.792994] yes=13,no=14,missing=13
				13:leaf=-0.0162898
				14:[f38<1.44926e+09] yes=17,no=18,missing=18
					17:leaf=0.0565602
					18:leaf=-0.0135925
			10:leaf=-0.0230858
booster[271]:
0:[f30<30.2156] yes=1,no=2,missing=2
	1:[f54<2.19545] yes=3,no=4,missing=4
		3:leaf=-0.0233128
		4:[f54<2.31456] yes=7,no=8,missing=8
			7:leaf=0.0480094
			8:[f49<0.5] yes=15,no=16,missing=15
				15:leaf=-0.00273385
				16:leaf=0.0201613
	2:[f39<14638.5] yes=5,no=6,missing=5
		5:leaf=0.00696028
		6:leaf=0.0381319
booster[272]:
0:leaf=-0.0190324
booster[273]:
0:leaf=-0.0228549
booster[274]:
0:[f17<0.716769] yes=1,no=2,missing=2
	1:[f1<0.374964] yes=3,no=4,missing=4
		3:leaf=-0.0155266
		4:[f15<-1e-06] yes=9,no=10,missing=9
			9:[f32<11.1278] yes=15,no=16,missing=15
				15:leaf=0.0377166
				16:leaf=-0.00571951
			10:leaf=-0.0100201
	2:[f32<10.54] yes=5,no=6,missing=6
		5:[f32<-5163.7] yes=11,no=12,missing=12
			11:leaf=0.0403104
			12:leaf=-0.0190643
		6:[f5<-0.843854] yes=13,no=14,missing=14
			13:leaf=-0.0197507
			14:leaf=0.0177214
booster[275]:
0:[f54<8.86111] yes=1,no=2,missing=2
	1:leaf=-0.0225525
	2:[f34<44.345] yes=5,no=6,missing=6
		5:[f34<30.4418] yes=9,no=10,missing=10
			9:[f34<30.3979] yes=13,no=14,missing=14
				13:leaf=-0
				14:leaf=0.0658607
			10:[f32<2.4] yes=15,no=16,missing=16
				15:[f12<1.35382] yes=21,no=22,missing=22
					21:[f12<0.300965] yes=27,no=28,missing=28
						27:leaf=-0.000268113
						28:leaf=0.046064
					22:leaf=-0.0137754
				16:leaf=-0.0194071
		6:[f22<0.0292044] yes=11,no=12,missing=12
			11:leaf=-0.0139318
			12:leaf=0.0455439
booster[276]:
0:[f6<0.00837792] yes=1,no=2,missing=1
	1:leaf=-0.0234156
	2:[f22<0.0223011] yes=5,no=6,missing=6
		5:leaf=0.0485873
		6:leaf=-0.014225
booster[277]:
0:[f6<0.000438166] yes=1,no=2,missing=1
	1:leaf=-0.0140496
	2:[f32<0.65] yes=5,no=6,missing=5
		5:[f17<0.496403] yes=11,no=12,missing=11
			11:leaf=-0.0046898
			12:[f32<-6.65] yes=21,no=22,missing=22
				21:leaf=-0.00946771
				22:leaf=0.0336908
		6:leaf=-0.00750936
booster[278]:
0:[f37<48567.5] yes=1,no=2,missing=1
	1:[f17<0.857404] yes=3,no=4,missing=3
		3:leaf=-0.0223913
		4:[f42<105.5] yes=9,no=10,missing=9
			9:leaf=-0.0168081
			10:leaf=0.0432169
	2:[f17<0.621797] yes=5,no=6,missing=6
		5:leaf=0.00335801
		6:leaf=0.0407008
booster[279]:
0:leaf=-0.023454
booster[280]:
0:[f30<1.40512] yes=1,no=2,missing=2
	1:[f22<0.00320513] yes=3,no=4,missing=3
		3:leaf=0.0901375
		4:leaf=-0.0154134
	2:leaf=-0.0205745
booster[281]:
0:[f54<15.625] yes=1,no=2,missing=2
	1:leaf=-0.0249933
	2:[f42<35.5] yes=3,no=4,missing=3
		3:leaf=-0.0209456
		4:[f42<80.5] yes=7,no=8,missing=7
			7:[f22<0.0181882] yes=9,no=10,missing=10
				9:leaf=-0.0160159
				10:[f49<0.5] yes=13,no=14,missing=13
					13:[f30<6.04182] yes=17,no=18,missing=18
						17:leaf=-0.0048079
						18:leaf=0.0684615
					14:leaf=-0.00775956
			8:leaf=-0.0124893
booster[282]:
0:[f35<-80.9799] yes=1,no=2,missing=1
	1:[f32<-15.45] yes=3,no=4,missing=3
		3:[f20<0.128408] yes=7,no=8,missing=7
			7:[f35<-92.7845] yes=13,no=14,missing=13
				13:[f35<-94.5635] yes=25,no=26,missing=25
					25:leaf=0.00594341
					26:leaf=0.0545917
				14:leaf=-0.00905613
			8:leaf=0.033751
		4:[f9<-0.497799] yes=9,no=10,missing=10
			9:leaf=0.0182485
			10:leaf=-0.01467
	2:[f35<-80.0149] yes=5,no=6,missing=6
		5:leaf=0.0667237
		6:[f0<9.7283] yes=11,no=12,missing=12
			11:leaf=-0.0122296
			12:[f35<-77.4763] yes=23,no=24,missing=24
				23:leaf=-0
				24:leaf=0.0444328
booster[283]:
0:leaf=-0.0224405
booster[284]:
0:leaf=-0.0228632
booster[285]:
0:[f35<-84.122] yes=1,no=2,missing=1
	1:[f34<42.9982] yes=3,no=4,missing=3
		3:[f35<-118.338] yes=7,no=8,missing=8
			7:leaf=-0.0211682
			8:[f10<80.3822] yes=15,no=16,missing=16
				15:leaf=-0.0018808
				16:[f34<29.74] yes=23,no=24,missing=24
					23:leaf=-0.01244
					24:leaf=0.0396165
		4:leaf=-0.0204164
	2:leaf=-0.0177673
booster[286]:
0:[f53<0.0954457] yes=1,no=2,missing=1
	1:[f35<-82.9604] yes=3,no=4,missing=3
		3:[f35<-87.7701] yes=5,no=6,missing=5
			5:[f33<663] yes=9,no=10,missing=9
				9:leaf=-0.00537823
				10:[f53<0.052795] yes=19,no=20,missing=19
					19:[f35<-89.1229] yes=31,no=32,missing=32
						31:leaf=0.0708254
						32:leaf=-0.000878627
					20:leaf=-0.0152723
			6:[f35<-87.0289] yes=11,no=12,missing=12
				11:leaf=0.0950919
				12:[f53<0.0245223] yes=21,no=22,missing=21
					21:leaf=-0
					22:[f30<13.5996] yes=35,no=36,missing=35
						35:leaf=0.0770537
						36:leaf=-0.00179055
		4:leaf=-0.0088056
	2:leaf=-0.0251238
booster[287]:
0:[f53<0.0053765] yes=1,no=2,missing=1
	1:leaf=0.0187335
	2:leaf=-0.0211881
booster[288]:
0:[f4<3.68511] yes=1,no=2,missing=2
	1:[f30<19.5985] yes=3,no=4,missing=4
		3:leaf=-0.00830278
		4:leaf=0.0201896
	2:leaf=-0.0155171
booster[289]:
0:[f52<202.5] yes=1,no=2,missing=2
	1:[f4<1.79788] yes=3,no=4,missing=3
		3:leaf=-0.0215953
		4:[f35<-87.7459] yes=9,no=10,missing=10
			9:[f35<-95.2017] yes=19,no=20,missing=20
				19:leaf=-0.0121477
				20:leaf=0.0420153
			10:leaf=-0.00503287
	2:[f31<-6.47981] yes=5,no=6,missing=5
		5:[f36<-14.3865] yes=11,no=12,missing=12
			11:leaf=0.0329593
			12:leaf=-0.0196916
		6:[f35<-97.8405] yes=13,no=14,missing=14
			13:leaf=-0.0157308
			14:[f35<-80.7082] yes=29,no=30,missing=30
				29:leaf=0.0435578
				30:[f7<0.000752266] yes=41,no=42,missing=41
					41:leaf=0.0385316
					42:leaf=-0.0196744
booster[290]:
0:leaf=-0.0239723
booster[291]:
0:leaf=-0.0193209
booster[292]:
0:[f35<-76.1036] yes=1,no=2,missing=1
	1:leaf=-0.019887
	2:[f35<-75.1534] yes=5,no=6,missing=6
		5:leaf=0.0612027
		6:leaf=-0.0185774
booster[293]:
0:[f17<0.605062] yes=1,no=2,missing=2
	1:[f10<312.029] yes=3,no=4,missing=4
		3:[f48<0.5] yes=7,no=8,missing=7
			7:leaf=0.0341101
			8:leaf=-0.0093793
		4:leaf=-0
	2:[f10<97.21] yes=5,no=6,missing=5
		5:[f44<0.5] yes=11,no=12,missing=11
			11:leaf=0.0124911
			12:[f1<1.44584] yes=23,no=24,missing=23
				23:leaf=0.000811366
				24:leaf=0.0859215
		6:[f18<0.0293132] yes=13,no=14,missing=14
			13:leaf=0.0282075
			14:leaf=-0.00932381
booster[294]:
0:leaf=-0.0194234
booster[295]:
0:leaf=-0.0233914
booster[296]:
0:[f37<5920] yes=1,no=2,missing=2
	1:leaf=-0.0201969
	2:[f37<50409] yes=5,no=6,missing=5
		5:[f35<-83.0271] yes=9,no=10,missing=9
			9:[f35<-118.341] yes=15,no=16,missing=16
				15:leaf=-0
				16:[f31<2.82] yes=27,no=28,missing=27
					27:[f31<-5.88558] yes=35,no=36,missing=35
						35:leaf=0.0399539
						36:leaf=-0.000438675
					28:leaf=0.0644998
			10:leaf=-0.00326889
		6:[f17<0.672392] yes=11,no=12,missing=12
			11:leaf=0.0280666
			12:leaf=-0.0171434
booster[297]:
0:[f18<0.186459] yes=1,no=2,missing=2
	1:[f28<0.5] yes=3,no=4,missing=3
		3:[f34<39.8402] yes=7,no=8,missing=8
			7:leaf=-0.012204
			8:leaf=0.0141566
		4:leaf=-0.0159746
	2:[f34<41.8829] yes=5,no=6,missing=5
		5:[f34<31.1206] yes=11,no=12,missing=12
			11:[f34<30.367] yes=23,no=24,missing=24
				23:leaf=-0.00817631
				24:leaf=0.0705479
			12:leaf=-0.0029042
		6:leaf=0.041693
booster[298]:
0:[f6<0.00701053] yes=1,no=2,missing=1
	1:leaf=-0.0233341
	2:[f53<0.00546513] yes=5,no=6,missing=5
		5:leaf=0.058845
		6:leaf=-0.00260384
booster[299]:
0:[f52<28.5] yes=1,no=2,missing=2
	1:[f6<0.00172137] yes=3,no=4,missing=3
		3:leaf=-0
		4:[f49<0.5] yes=9,no=10,missing=9
			9:leaf=0.0537803
			10:leaf=-0.00367728
	2:leaf=-0.00985022
booster[300]:
0:[f54<3.33333] yes=1,no=2,missing=2
	1:[f52<3766.5] yes=3,no=4,missing=4
		3:leaf=0.0434244
		4:leaf=-0.0109249
	2:[f52<2190.5] yes=5,no=6,missing=5
		5:[f33<795.5] yes=9,no=10,missing=9
			9:leaf=-0.0215866
			10:[f2<0.298292] yes=15,no=16,missing=15
				15:leaf=-0.00904126
				16:leaf=0.0206361
		6:[f2<0.124726] yes=11,no=12,missing=11
			11:leaf=0.0530981
			12:leaf=-0.00431488
booster[301]:
0:leaf=-0.0246784
booster[302]:
0:[f9<-1.89554] yes=1,no=2,missing=1
	1:[f52<189.5] yes=3,no=4,missing=4
		3:[f52<78.5] yes=7,no=8,missing=8
			7:leaf=-0.0158169
			8:leaf=0.0810448
		4:leaf=-0.018815
	2:leaf=-0.0214352
booster[303]:
0:leaf=-0.0151863
booster[304]:
0:[f31<1.05] yes=1,no=2,missing=2
	1:leaf=-0.0142788
	2:[f51<0.5] yes=5,no=6,missing=5
		5:[f50<0.5] yes=11,no=12,missing=11
			11:[f30<1.61818] yes=19,no=20,missing=20
				19:leaf=-0.0189948
				20:[f10<159.653] yes=27,no=28,missing=28
					27:leaf=0.0322
					28:[f42<441.5] yes=37,no=38,missing=37
						37:leaf=0.0211912
						38:leaf=-0.0220752
			12:leaf=-0.0158242
		6:leaf=-0.00290976
booster[305]:
0:[f0<0.000502008] yes=1,no=2,missing=2
	1:[f32<-3.25] yes=3,no=4,missing=3
		3:leaf=-0.0129434
		4:leaf=0.0661279
	2:leaf=-0.0232361
booster[306]:
0:leaf=-0.021925
booster[307]:
0:[f37<5002.5] yes=1,no=2,missing=2
	1:leaf=-0.0175316
	2:[f37<58041.5] yes=5,no=6,missing=5
		5:[f40<4.5] yes=11,no=12,missing=12
			11:leaf=0.0412816
			12:[f52<1231] yes=19,no=20,missing=20
				19:leaf=-0.00567983
				20:leaf=0.0434706
		6:[f2<0.00252182] yes=13,no=14,missing=14
			13:leaf=0.0185868
			14:leaf=-0.0118733
booster[308]:
0:[f54<13.5833] yes=1,no=2,missing=2
	1:leaf=-0.0226264
	2:[f52<87.5] yes=5,no=6,missing=6
		5:leaf=-0.01625
		6:[f34<38.7812] yes=11,no=12,missing=12
			11:[f1<38.216] yes=19,no=20,missing=20
				19:[f52<350.5] yes=25,no=26,missing=25
					25:leaf=-0.0119403
					26:leaf=0.0749948
				20:leaf=-0.0164694
			12:[f17<0.14391] yes=21,no=22,missing=22
				21:leaf=-0.0107566
				22:[f26<0.5] yes=29,no=30,missing=29
					29:[f49<0.5] yes=31,no=32,missing=31
						31:leaf=0.0700711
						32:leaf=-0
					30:leaf=-0
booster[309]:
0:[f54<39.375] yes=1,no=2,missing=1
	1:leaf=-0.0196249
	2:leaf=0.0154362
booster[310]:
0:[f52<38.5] yes=1,no=2,missing=2
	1:[f17<0.456795] yes=3,no=4,missing=4
		3:leaf=-0.0114907
		4:[f9<3.50301] yes=9,no=10,missing=9
			9:[f35<-78.4093] yes=17,no=18,missing=17
				17:leaf=0.0566096
				18:leaf=-0.00179217
			10:leaf=-0.00334442
	2:[f35<-105.812] yes=5,no=6,missing=6
		5:[f7<0.000627513] yes=11,no=12,missing=11
			11:leaf=0.0736935
			12:leaf=-0.0178785
		6:[f35<-71.0921] yes=13,no=14,missing=13
			13:leaf=-0.0187396
			14:leaf=0.0455766
booster[311]:
0:[f17<0.641702] yes=1,no=2,missing=2
	1:leaf=-0.018137
	2:[f31<21.4619] yes=5,no=6,missing=6
		5:[f42<220.5] yes=11,no=12,missing=11
			11:leaf=0.00161199
			12:leaf=0.0343963
		6:[f9<-0.683838] yes=13,no=14,missing=13
			13:[f4<2.38619] yes=21,no=22,missing=22
				21:leaf=0.0405148
				22:leaf=-0.00751483
			14:leaf=-0.0241631
booster[312]:
0:leaf=-0.0224653
booster[313]:
0:[f34<27.9429] yes=1,no=2,missing=1
	1:leaf=0.0334943
	2:leaf=-0.0214065
booster[314]:
0:[f30<45.1917] yes=1,no=2,missing=2
	1:leaf=-0.0174771
	2:[f31<2.5] yes=5,no=6,missing=6
		5:leaf=0.0547694
		6:leaf=-0.00655731
booster[315]:
0:[f35<-80.8908] yes=1,no=2,missing=2
	1:[f35<-92.7964] yes=3,no=4,missing=4
		3:[f6<0.000995128] yes=7,no=8,missing=7
			7:leaf=0.000318698
			8:[f35<-122.158] yes=15,no=16,missing=16
				15:leaf=-0.0154856
				16:[f35<-114.736] yes=29,no=30,missing=30
					29:leaf=0.0738512
					30:[f23<0.0286044] yes=47,no=48,missing=48
						47:leaf=-0
						48:leaf=0.0502307
		4:leaf=-0.0118472
	2:[f32<6.55] yes=5,no=6,missing=5
		5:[f28<3.5] yes=11,no=12,missing=11
			11:[f35<-77.4764] yes=21,no=22,missing=21
				21:[f35<-80.0454] yes=37,no=38,missing=37
					37:leaf=0.0314391
					38:leaf=-0.0216555
				22:leaf=0.049774
			12:leaf=-0.0105368
		6:leaf=0.0869007
booster[316]:
0:[f0<0.0470191] yes=1,no=2,missing=2
	1:[f32<3.04167] yes=3,no=4,missing=3
		3:leaf=-0.016416
		4:leaf=0.0729687
	2:leaf=-0.0223342
booster[317]:
0:leaf=-0.0232438
booster[318]:
0:[f10<79.7056] yes=1,no=2,missing=2
	1:leaf=-0.0161223
	2:[f1<8.14108] yes=5,no=6,missing=6
		5:leaf=-0.0077266
		6:[f41<4.5] yes=9,no=10,missing=9
			9:[f11<113.099] yes=13,no=14,missing=14
				13:[f10<130.029] yes=19,no=20,missing=20
					19:leaf=0.0260209
					20:leaf=-0.0149
				14:leaf=0.0283649
			10:[f1<76.5486] yes=15,no=16,missing=16
				15:leaf=0.0253641
				16:leaf=-0.0033034
booster[319]:
0:[f37<25630] yes=1,no=2,missing=1
	1:[f35<-84.6135] yes=3,no=4,missing=4
		3:[f35<-104.936] yes=7,no=8,missing=8
			7:leaf=-0.000141979
			8:[f49<0.5] yes=17,no=18,missing=17
				17:[f30<3.71242] yes=31,no=32,missing=32
					31:leaf=-0
					32:[f13<8.6032] yes=45,no=46,missing=46
						45:leaf=0.074309
						46:leaf=-0.000257574
				18:leaf=-0.000772525
		4:leaf=-0.0117684
	2:leaf=-0.017433
booster[320]:
0:[f53<0.00514142] yes=1,no=2,missing=1
	1:[f9<-0.489334] yes=3,no=4,missing=4
		3:leaf=0.0711775
		4:leaf=-0.0172518
	2:leaf=-0.0222962
booster[321]:
0:[f27<1.5] yes=1,no=2,missing=1
	1:[f12<-0.155755] yes=3,no=4,missing=4
		3:[f30<4.66606] yes=7,no=8,missing=8
			7:leaf=-0.00975822
			8:leaf=0.0466997
		4:[f30<12.0784] yes=9,no=10,missing=10
			9:leaf=-0.00434884
			10:[f35<-80.9293] yes=19,no=20,missing=19
				19:[f30<38.4867] yes=33,no=34,missing=34
